digraph Tree {
node [shape=box, style="filled, rounded", color="black", fontname="helvetica"] ;
edge [fontname="helvetica"] ;
0 [label="x[4] <= -0.642\ngini = 0.232\nsamples = 6187\nvalue = [[4215.0, 1972.0]\n[5556.0, 631.0]\n[5234.0, 953.0]\n[5514.0, 673.0]\n[5511.0, 676.0]\n[5948.0, 239.0]\n[5144.0, 1043.0]]", fillcolor="#fffdfc"] ;
1 [label="x[15] <= -0.008\ngini = 0.153\nsamples = 1465\nvalue = [[1373.0, 92.0]\n[1409.0, 56.0]\n[1256.0, 209.0]\n[1430.0, 35.0]\n[1453.0, 12.0]\n[1368.0, 97.0]\n[501.0, 964.0]]", fillcolor="#f6d3ba"] ;
0 -> 1 [labeldistance=2.5, labelangle=45, headlabel="True"] ;
2 [label="x[10] <= -0.015\ngini = 0.062\nsamples = 1089\nvalue = [[1070.0, 19.0]\n[1073.0, 16.0]\n[1043.0, 46.0]\n[1087.0, 2.0]\n[1087.0, 2.0]\n[1046.0, 43.0]\n[128.0, 961.0]]", fillcolor="#eca26d"] ;
1 -> 2 ;
3 [label="x[7] <= -0.057\ngini = 0.027\nsamples = 1010\nvalue = [[992, 18]\n[1005, 5]\n[985, 25]\n[1008, 2]\n[1010, 0]\n[1010, 0]\n[50, 960]]", fillcolor="#e89050"] ;
2 -> 3 ;
4 [label="x[2] <= 0.527\ngini = 0.161\nsamples = 41\nvalue = [[32, 9]\n[36, 5]\n[16, 25]\n[39, 2]\n[41, 0]\n[41, 0]\n[41, 0]]", fillcolor="#f7d7c1"] ;
3 -> 4 ;
5 [label="x[2] <= 0.317\ngini = 0.159\nsamples = 13\nvalue = [[6, 7]\n[8, 5]\n[12, 1]\n[13, 0]\n[13, 0]\n[13, 0]\n[13, 0]]", fillcolor="#f7d6bf"] ;
4 -> 5 ;
6 [label="gini = 0.0\nsamples = 7\nvalue = [[0, 7]\n[7, 0]\n[7, 0]\n[7, 0]\n[7, 0]\n[7, 0]\n[7, 0]]", fillcolor="#e58139"] ;
5 -> 6 ;
7 [label="x[1] <= 0.401\ngini = 0.079\nsamples = 6\nvalue = [[6, 0]\n[1, 5]\n[5, 1]\n[6, 0]\n[6, 0]\n[6, 0]\n[6, 0]]", fillcolor="#eeac7c"] ;
5 -> 7 ;
8 [label="gini = 0.0\nsamples = 5\nvalue = [[5, 0]\n[0, 5]\n[5, 0]\n[5, 0]\n[5, 0]\n[5, 0]\n[5, 0]]", fillcolor="#e58139"] ;
7 -> 8 ;
9 [label="gini = 0.0\nsamples = 1\nvalue = [[1, 0]\n[1, 0]\n[0, 1]\n[1, 0]\n[1, 0]\n[1, 0]\n[1, 0]]", fillcolor="#e58139"] ;
7 -> 9 ;
10 [label="x[0] <= -0.845\ngini = 0.073\nsamples = 28\nvalue = [[26, 2]\n[28, 0]\n[4, 24]\n[26, 2]\n[28, 0]\n[28, 0]\n[28, 0]]", fillcolor="#eda876"] ;
4 -> 10 ;
11 [label="gini = 0.0\nsamples = 2\nvalue = [[2, 0]\n[2, 0]\n[2, 0]\n[0, 2]\n[2, 0]\n[2, 0]\n[2, 0]]", fillcolor="#e58139"] ;
10 -> 11 ;
12 [label="x[7] <= -2.762\ngini = 0.041\nsamples = 26\nvalue = [[24, 2]\n[26, 0]\n[2, 24]\n[26, 0]\n[26, 0]\n[26, 0]\n[26, 0]]", fillcolor="#e9975b"] ;
10 -> 12 ;
13 [label="gini = 0.0\nsamples = 1\nvalue = [[0, 1]\n[1, 0]\n[1, 0]\n[1, 0]\n[1, 0]\n[1, 0]\n[1, 0]]", fillcolor="#e58139"] ;
12 -> 13 ;
14 [label="x[9] <= -0.021\ngini = 0.022\nsamples = 25\nvalue = [[24, 1]\n[25, 0]\n[1, 24]\n[25, 0]\n[25, 0]\n[25, 0]\n[25, 0]]", fillcolor="#e78d4c"] ;
12 -> 14 ;
15 [label="gini = 0.0\nsamples = 23\nvalue = [[23, 0]\n[23, 0]\n[0, 23]\n[23, 0]\n[23, 0]\n[23, 0]\n[23, 0]]", fillcolor="#e58139"] ;
14 -> 15 ;
16 [label="x[2] <= 0.591\ngini = 0.143\nsamples = 2\nvalue = [[1, 1]\n[2, 0]\n[1, 1]\n[2, 0]\n[2, 0]\n[2, 0]\n[2, 0]]", fillcolor="#f5ceb2"] ;
14 -> 16 ;
17 [label="gini = 0.0\nsamples = 1\nvalue = [[1, 0]\n[1, 0]\n[0, 1]\n[1, 0]\n[1, 0]\n[1, 0]\n[1, 0]]", fillcolor="#e58139"] ;
16 -> 17 ;
18 [label="gini = 0.0\nsamples = 1\nvalue = [[0, 1]\n[1, 0]\n[1, 0]\n[1, 0]\n[1, 0]\n[1, 0]\n[1, 0]]", fillcolor="#e58139"] ;
16 -> 18 ;
19 [label="x[18] <= -0.016\ngini = 0.005\nsamples = 969\nvalue = [[960, 9]\n[969, 0]\n[969, 0]\n[969, 0]\n[969, 0]\n[969, 0]\n[9, 960]]", fillcolor="#e6843d"] ;
3 -> 19 ;
20 [label="gini = 0.0\nsamples = 9\nvalue = [[0, 9]\n[9, 0]\n[9, 0]\n[9, 0]\n[9, 0]\n[9, 0]\n[9, 0]]", fillcolor="#e58139"] ;
19 -> 20 ;
21 [label="gini = 0.0\nsamples = 960\nvalue = [[960, 0]\n[960, 0]\n[960, 0]\n[960, 0]\n[960, 0]\n[960, 0]\n[0, 960]]", fillcolor="#e58139"] ;
19 -> 21 ;
22 [label="x[1] <= -0.748\ngini = 0.175\nsamples = 79\nvalue = [[78.0, 1.0]\n[68.0, 11.0]\n[58.0, 21.0]\n[79.0, 0.0]\n[77.0, 2.0]\n[36.0, 43.0]\n[78.0, 1.0]]", fillcolor="#f8dfcd"] ;
2 -> 22 ;
23 [label="x[6] <= -0.395\ngini = 0.064\nsamples = 49\nvalue = [[49.0, 0.0]\n[49.0, 0.0]\n[46.0, 3.0]\n[49.0, 0.0]\n[47.0, 2.0]\n[6.0, 43.0]\n[48.0, 1.0]]", fillcolor="#eca36f"] ;
22 -> 23 ;
24 [label="x[13] <= -0.05\ngini = 0.046\nsamples = 47\nvalue = [[47, 0]\n[47, 0]\n[46, 1]\n[47, 0]\n[45, 2]\n[4, 43]\n[46, 1]]", fillcolor="#ea9a60"] ;
23 -> 24 ;
25 [label="x[19] <= -0.01\ngini = 0.175\nsamples = 6\nvalue = [[6, 0]\n[6, 0]\n[6, 0]\n[6, 0]\n[4, 2]\n[3, 3]\n[5, 1]]", fillcolor="#f8dfcc"] ;
24 -> 25 ;
26 [label="x[22] <= -0.003\ngini = 0.137\nsamples = 5\nvalue = [[5, 0]\n[5, 0]\n[5, 0]\n[5, 0]\n[3, 2]\n[2, 3]\n[5, 0]]", fillcolor="#f4cbad"] ;
25 -> 26 ;
27 [label="gini = 0.0\nsamples = 2\nvalue = [[2, 0]\n[2, 0]\n[2, 0]\n[2, 0]\n[2, 0]\n[0, 2]\n[2, 0]]", fillcolor="#e58139"] ;
26 -> 27 ;
28 [label="x[15] <= -0.011\ngini = 0.127\nsamples = 3\nvalue = [[3, 0]\n[3, 0]\n[3, 0]\n[3, 0]\n[1, 2]\n[2, 1]\n[3, 0]]", fillcolor="#f3c5a4"] ;
26 -> 28 ;
29 [label="gini = 0.0\nsamples = 2\nvalue = [[2, 0]\n[2, 0]\n[2, 0]\n[2, 0]\n[0, 2]\n[2, 0]\n[2, 0]]", fillcolor="#e58139"] ;
28 -> 29 ;
30 [label="gini = 0.0\nsamples = 1\nvalue = [[1, 0]\n[1, 0]\n[1, 0]\n[1, 0]\n[1, 0]\n[0, 1]\n[1, 0]]", fillcolor="#e58139"] ;
28 -> 30 ;
31 [label="gini = 0.0\nsamples = 1\nvalue = [[1, 0]\n[1, 0]\n[1, 0]\n[1, 0]\n[1, 0]\n[1, 0]\n[0, 1]]", fillcolor="#e58139"] ;
25 -> 31 ;
32 [label="x[9] <= -0.141\ngini = 0.014\nsamples = 41\nvalue = [[41, 0]\n[41, 0]\n[40, 1]\n[41, 0]\n[41, 0]\n[1, 40]\n[41, 0]]", fillcolor="#e78844"] ;
24 -> 32 ;
33 [label="x[10] <= 0.519\ngini = 0.143\nsamples = 2\nvalue = [[2, 0]\n[2, 0]\n[1, 1]\n[2, 0]\n[2, 0]\n[1, 1]\n[2, 0]]", fillcolor="#f5ceb2"] ;
32 -> 33 ;
34 [label="gini = 0.0\nsamples = 1\nvalue = [[1, 0]\n[1, 0]\n[0, 1]\n[1, 0]\n[1, 0]\n[1, 0]\n[1, 0]]", fillcolor="#e58139"] ;
33 -> 34 ;
35 [label="gini = 0.0\nsamples = 1\nvalue = [[1, 0]\n[1, 0]\n[1, 0]\n[1, 0]\n[1, 0]\n[0, 1]\n[1, 0]]", fillcolor="#e58139"] ;
33 -> 35 ;
36 [label="gini = 0.0\nsamples = 39\nvalue = [[39, 0]\n[39, 0]\n[39, 0]\n[39, 0]\n[39, 0]\n[0, 39]\n[39, 0]]", fillcolor="#e58139"] ;
32 -> 36 ;
37 [label="gini = 0.0\nsamples = 2\nvalue = [[2, 0]\n[2, 0]\n[0, 2]\n[2, 0]\n[2, 0]\n[2, 0]\n[2, 0]]", fillcolor="#e58139"] ;
23 -> 37 ;
38 [label="x[21] <= 0.009\ngini = 0.144\nsamples = 30\nvalue = [[29, 1]\n[19, 11]\n[12, 18]\n[30, 0]\n[30, 0]\n[30, 0]\n[30, 0]]", fillcolor="#f5ceb3"] ;
22 -> 38 ;
39 [label="x[1] <= 5.544\ngini = 0.053\nsamples = 20\nvalue = [[19, 1]\n[19, 1]\n[2, 18]\n[20, 0]\n[20, 0]\n[20, 0]\n[20, 0]]", fillcolor="#eb9d66"] ;
38 -> 39 ;
40 [label="x[0] <= -0.296\ngini = 0.028\nsamples = 19\nvalue = [[19, 0]\n[18, 1]\n[1, 18]\n[19, 0]\n[19, 0]\n[19, 0]\n[19, 0]]", fillcolor="#e89051"] ;
39 -> 40 ;
41 [label="x[10] <= -0.014\ngini = 0.143\nsamples = 2\nvalue = [[2, 0]\n[1, 1]\n[1, 1]\n[2, 0]\n[2, 0]\n[2, 0]\n[2, 0]]", fillcolor="#f5ceb2"] ;
40 -> 41 ;
42 [label="gini = 0.0\nsamples = 1\nvalue = [[1, 0]\n[1, 0]\n[0, 1]\n[1, 0]\n[1, 0]\n[1, 0]\n[1, 0]]", fillcolor="#e58139"] ;
41 -> 42 ;
43 [label="gini = 0.0\nsamples = 1\nvalue = [[1, 0]\n[0, 1]\n[1, 0]\n[1, 0]\n[1, 0]\n[1, 0]\n[1, 0]]", fillcolor="#e58139"] ;
41 -> 43 ;
44 [label="gini = 0.0\nsamples = 17\nvalue = [[17, 0]\n[17, 0]\n[0, 17]\n[17, 0]\n[17, 0]\n[17, 0]\n[17, 0]]", fillcolor="#e58139"] ;
40 -> 44 ;
45 [label="gini = 0.0\nsamples = 1\nvalue = [[0, 1]\n[1, 0]\n[1, 0]\n[1, 0]\n[1, 0]\n[1, 0]\n[1, 0]]", fillcolor="#e58139"] ;
39 -> 45 ;
46 [label="gini = 0.0\nsamples = 10\nvalue = [[10, 0]\n[0, 10]\n[10, 0]\n[10, 0]\n[10, 0]\n[10, 0]\n[10, 0]]", fillcolor="#e58139"] ;
38 -> 46 ;
47 [label="x[5] <= -0.847\ngini = 0.21\nsamples = 376\nvalue = [[303.0, 73.0]\n[336.0, 40.0]\n[213.0, 163.0]\n[343.0, 33.0]\n[366.0, 10.0]\n[322.0, 54.0]\n[373.0, 3.0]]", fillcolor="#fcf2ea"] ;
1 -> 47 ;
48 [label="x[22] <= -0.0\ngini = 0.033\nsamples = 67\nvalue = [[4, 63]\n[67, 0]\n[66, 1]\n[67, 0]\n[66, 1]\n[67, 0]\n[65, 2]]", fillcolor="#e99355"] ;
47 -> 48 ;
49 [label="x[20] <= -0.005\ngini = 0.127\nsamples = 3\nvalue = [[3, 0]\n[3, 0]\n[2, 1]\n[3, 0]\n[3, 0]\n[3, 0]\n[1, 2]]", fillcolor="#f3c5a4"] ;
48 -> 49 ;
50 [label="gini = 0.0\nsamples = 1\nvalue = [[1, 0]\n[1, 0]\n[0, 1]\n[1, 0]\n[1, 0]\n[1, 0]\n[1, 0]]", fillcolor="#e58139"] ;
49 -> 50 ;
51 [label="gini = 0.0\nsamples = 2\nvalue = [[2, 0]\n[2, 0]\n[2, 0]\n[2, 0]\n[2, 0]\n[2, 0]\n[0, 2]]", fillcolor="#e58139"] ;
49 -> 51 ;
52 [label="x[9] <= 0.097\ngini = 0.009\nsamples = 64\nvalue = [[1, 63]\n[64, 0]\n[64, 0]\n[64, 0]\n[63, 1]\n[64, 0]\n[64, 0]]", fillcolor="#e68640"] ;
48 -> 52 ;
53 [label="gini = 0.0\nsamples = 62\nvalue = [[0, 62]\n[62, 0]\n[62, 0]\n[62, 0]\n[62, 0]\n[62, 0]\n[62, 0]]", fillcolor="#e58139"] ;
52 -> 53 ;
54 [label="x[7] <= -2.997\ngini = 0.143\nsamples = 2\nvalue = [[1, 1]\n[2, 0]\n[2, 0]\n[2, 0]\n[1, 1]\n[2, 0]\n[2, 0]]", fillcolor="#f5ceb2"] ;
52 -> 54 ;
55 [label="gini = 0.0\nsamples = 1\nvalue = [[0, 1]\n[1, 0]\n[1, 0]\n[1, 0]\n[1, 0]\n[1, 0]\n[1, 0]]", fillcolor="#e58139"] ;
54 -> 55 ;
56 [label="gini = 0.0\nsamples = 1\nvalue = [[1, 0]\n[1, 0]\n[1, 0]\n[1, 0]\n[0, 1]\n[1, 0]\n[1, 0]]", fillcolor="#e58139"] ;
54 -> 56 ;
57 [label="x[6] <= -0.975\ngini = 0.19\nsamples = 309\nvalue = [[299, 10]\n[269, 40]\n[147, 162]\n[276, 33]\n[300, 9]\n[255, 54]\n[308, 1]]", fillcolor="#fae7d9"] ;
47 -> 57 ;
58 [label="x[6] <= -1.028\ngini = 0.035\nsamples = 47\nvalue = [[47.0, 0.0]\n[47.0, 0.0]\n[45.0, 2.0]\n[47.0, 0.0]\n[47.0, 0.0]\n[3.0, 44.0]\n[46.0, 1.0]]", fillcolor="#e99456"] ;
57 -> 58 ;
59 [label="x[5] <= 4.852\ngini = 0.127\nsamples = 3\nvalue = [[3, 0]\n[3, 0]\n[1, 2]\n[3, 0]\n[3, 0]\n[3, 0]\n[2, 1]]", fillcolor="#f3c5a4"] ;
58 -> 59 ;
60 [label="gini = 0.0\nsamples = 1\nvalue = [[1, 0]\n[1, 0]\n[1, 0]\n[1, 0]\n[1, 0]\n[1, 0]\n[0, 1]]", fillcolor="#e58139"] ;
59 -> 60 ;
61 [label="gini = 0.0\nsamples = 2\nvalue = [[2, 0]\n[2, 0]\n[0, 2]\n[2, 0]\n[2, 0]\n[2, 0]\n[2, 0]]", fillcolor="#e58139"] ;
59 -> 61 ;
62 [label="gini = 0.0\nsamples = 44\nvalue = [[44, 0]\n[44, 0]\n[44, 0]\n[44, 0]\n[44, 0]\n[0, 44]\n[44, 0]]", fillcolor="#e58139"] ;
58 -> 62 ;
63 [label="x[15] <= 0.031\ngini = 0.167\nsamples = 262\nvalue = [[252, 10]\n[222, 40]\n[102, 160]\n[229, 33]\n[253, 9]\n[252, 10]\n[262, 0]]", fillcolor="#f7dbc6"] ;
57 -> 63 ;
64 [label="x[0] <= -0.614\ngini = 0.208\nsamples = 124\nvalue = [[118, 6]\n[84, 40]\n[86, 38]\n[91, 33]\n[122, 2]\n[119, 5]\n[124, 0]]", fillcolor="#fcf1e8"] ;
63 -> 64 ;
65 [label="x[9] <= -0.041\ngini = 0.178\nsamples = 78\nvalue = [[73.0, 5.0]\n[75.0, 3.0]\n[44.0, 34.0]\n[45.0, 33.0]\n[76.0, 2.0]\n[77.0, 1.0]\n[78.0, 0.0]]", fillcolor="#f9e1d0"] ;
64 -> 65 ;
66 [label="x[15] <= 0.001\ngini = 0.135\nsamples = 41\nvalue = [[36, 5]\n[41, 0]\n[37, 4]\n[12, 29]\n[39, 2]\n[40, 1]\n[41, 0]]", fillcolor="#f4c9ab"] ;
65 -> 66 ;
67 [label="x[15] <= -0.004\ngini = 0.036\nsamples = 30\nvalue = [[30, 0]\n[30, 0]\n[30, 0]\n[2, 28]\n[29, 1]\n[29, 1]\n[30, 0]]", fillcolor="#e99458"] ;
66 -> 67 ;
68 [label="x[17] <= -0.04\ngini = 0.143\nsamples = 2\nvalue = [[2, 0]\n[2, 0]\n[2, 0]\n[2, 0]\n[1, 1]\n[1, 1]\n[2, 0]]", fillcolor="#f5ceb2"] ;
67 -> 68 ;
69 [label="gini = 0.0\nsamples = 1\nvalue = [[1, 0]\n[1, 0]\n[1, 0]\n[1, 0]\n[1, 0]\n[0, 1]\n[1, 0]]", fillcolor="#e58139"] ;
68 -> 69 ;
70 [label="gini = 0.0\nsamples = 1\nvalue = [[1, 0]\n[1, 0]\n[1, 0]\n[1, 0]\n[0, 1]\n[1, 0]\n[1, 0]]", fillcolor="#e58139"] ;
68 -> 70 ;
71 [label="gini = 0.0\nsamples = 28\nvalue = [[28, 0]\n[28, 0]\n[28, 0]\n[0, 28]\n[28, 0]\n[28, 0]\n[28, 0]]", fillcolor="#e58139"] ;
67 -> 71 ;
72 [label="x[4] <= -0.842\ngini = 0.184\nsamples = 11\nvalue = [[6, 5]\n[11, 0]\n[7, 4]\n[10, 1]\n[10, 1]\n[11, 0]\n[11, 0]]", fillcolor="#f9e4d4"] ;
66 -> 72 ;
73 [label="gini = 0.0\nsamples = 5\nvalue = [[0, 5]\n[5, 0]\n[5, 0]\n[5, 0]\n[5, 0]\n[5, 0]\n[5, 0]]", fillcolor="#e58139"] ;
72 -> 73 ;
74 [label="x[4] <= -0.766\ngini = 0.143\nsamples = 6\nvalue = [[6, 0]\n[6, 0]\n[2, 4]\n[5, 1]\n[5, 1]\n[6, 0]\n[6, 0]]", fillcolor="#f5ceb2"] ;
72 -> 74 ;
75 [label="x[22] <= 0.001\ngini = 0.143\nsamples = 2\nvalue = [[2, 0]\n[2, 0]\n[2, 0]\n[1, 1]\n[1, 1]\n[2, 0]\n[2, 0]]", fillcolor="#f5ceb2"] ;
74 -> 75 ;
76 [label="gini = 0.0\nsamples = 1\nvalue = [[1, 0]\n[1, 0]\n[1, 0]\n[0, 1]\n[1, 0]\n[1, 0]\n[1, 0]]", fillcolor="#e58139"] ;
75 -> 76 ;
77 [label="gini = 0.0\nsamples = 1\nvalue = [[1, 0]\n[1, 0]\n[1, 0]\n[1, 0]\n[0, 1]\n[1, 0]\n[1, 0]]", fillcolor="#e58139"] ;
75 -> 77 ;
78 [label="gini = 0.0\nsamples = 4\nvalue = [[4, 0]\n[4, 0]\n[0, 4]\n[4, 0]\n[4, 0]\n[4, 0]\n[4, 0]]", fillcolor="#e58139"] ;
74 -> 78 ;
79 [label="x[12] <= 0.003\ngini = 0.093\nsamples = 37\nvalue = [[37, 0]\n[34, 3]\n[7, 30]\n[33, 4]\n[37, 0]\n[37, 0]\n[37, 0]]", fillcolor="#efb387"] ;
65 -> 79 ;
80 [label="x[17] <= -0.0\ngini = 0.178\nsamples = 14\nvalue = [[14, 0]\n[11, 3]\n[7, 7]\n[10, 4]\n[14, 0]\n[14, 0]\n[14, 0]]", fillcolor="#f9e0cf"] ;
79 -> 80 ;
81 [label="x[9] <= 0.105\ngini = 0.091\nsamples = 5\nvalue = [[5, 0]\n[5, 0]\n[4, 1]\n[1, 4]\n[5, 0]\n[5, 0]\n[5, 0]]", fillcolor="#efb286"] ;
80 -> 81 ;
82 [label="gini = 0.0\nsamples = 2\nvalue = [[2, 0]\n[2, 0]\n[2, 0]\n[0, 2]\n[2, 0]\n[2, 0]\n[2, 0]]", fillcolor="#e58139"] ;
81 -> 82 ;
83 [label="x[11] <= -0.001\ngini = 0.127\nsamples = 3\nvalue = [[3, 0]\n[3, 0]\n[2, 1]\n[1, 2]\n[3, 0]\n[3, 0]\n[3, 0]]", fillcolor="#f3c5a4"] ;
81 -> 83 ;
84 [label="gini = 0.0\nsamples = 2\nvalue = [[2, 0]\n[2, 0]\n[2, 0]\n[0, 2]\n[2, 0]\n[2, 0]\n[2, 0]]", fillcolor="#e58139"] ;
83 -> 84 ;
85 [label="gini = 0.0\nsamples = 1\nvalue = [[1, 0]\n[1, 0]\n[0, 1]\n[1, 0]\n[1, 0]\n[1, 0]\n[1, 0]]", fillcolor="#e58139"] ;
83 -> 85 ;
86 [label="x[17] <= 0.001\ngini = 0.127\nsamples = 9\nvalue = [[9, 0]\n[6, 3]\n[3, 6]\n[9, 0]\n[9, 0]\n[9, 0]\n[9, 0]]", fillcolor="#f3c5a4"] ;
80 -> 86 ;
87 [label="x[16] <= 0.005\ngini = 0.07\nsamples = 7\nvalue = [[7, 0]\n[6, 1]\n[1, 6]\n[7, 0]\n[7, 0]\n[7, 0]\n[7, 0]]", fillcolor="#eda774"] ;
86 -> 87 ;
88 [label="gini = 0.0\nsamples = 2\nvalue = [[2, 0]\n[2, 0]\n[0, 2]\n[2, 0]\n[2, 0]\n[2, 0]\n[2, 0]]", fillcolor="#e58139"] ;
87 -> 88 ;
89 [label="x[2] <= -9.382\ngini = 0.091\nsamples = 5\nvalue = [[5, 0]\n[4, 1]\n[1, 4]\n[5, 0]\n[5, 0]\n[5, 0]\n[5, 0]]", fillcolor="#efb286"] ;
87 -> 89 ;
90 [label="gini = 0.0\nsamples = 1\nvalue = [[1, 0]\n[1, 0]\n[0, 1]\n[1, 0]\n[1, 0]\n[1, 0]\n[1, 0]]", fillcolor="#e58139"] ;
89 -> 90 ;
91 [label="gini = 0.107\nsamples = 4\nvalue = [[4, 0]\n[3, 1]\n[1, 3]\n[4, 0]\n[4, 0]\n[4, 0]\n[4, 0]]", fillcolor="#f1bb93"] ;
89 -> 91 ;
92 [label="gini = 0.0\nsamples = 2\nvalue = [[2, 0]\n[0, 2]\n[2, 0]\n[2, 0]\n[2, 0]\n[2, 0]\n[2, 0]]", fillcolor="#e58139"] ;
86 -> 92 ;
93 [label="gini = 0.0\nsamples = 23\nvalue = [[23, 0]\n[23, 0]\n[0, 23]\n[23, 0]\n[23, 0]\n[23, 0]\n[23, 0]]", fillcolor="#e58139"] ;
79 -> 93 ;
94 [label="x[14] <= 0.044\ngini = 0.096\nsamples = 46\nvalue = [[45, 1]\n[9, 37]\n[42, 4]\n[46, 0]\n[46, 0]\n[42, 4]\n[46, 0]]", fillcolor="#f0b58a"] ;
64 -> 94 ;
95 [label="x[15] <= 0.02\ngini = 0.015\nsamples = 36\nvalue = [[35, 1]\n[1, 35]\n[36, 0]\n[36, 0]\n[36, 0]\n[36, 0]\n[36, 0]]", fillcolor="#e78946"] ;
94 -> 95 ;
96 [label="gini = 0.0\nsamples = 35\nvalue = [[35, 0]\n[0, 35]\n[35, 0]\n[35, 0]\n[35, 0]\n[35, 0]\n[35, 0]]", fillcolor="#e58139"] ;
95 -> 96 ;
97 [label="gini = 0.0\nsamples = 1\nvalue = [[0, 1]\n[1, 0]\n[1, 0]\n[1, 0]\n[1, 0]\n[1, 0]\n[1, 0]]", fillcolor="#e58139"] ;
95 -> 97 ;
98 [label="x[10] <= 0.195\ngini = 0.183\nsamples = 10\nvalue = [[10, 0]\n[8, 2]\n[6, 4]\n[10, 0]\n[10, 0]\n[6, 4]\n[10, 0]]", fillcolor="#f9e3d3"] ;
94 -> 98 ;
99 [label="x[6] <= -0.863\ngini = 0.127\nsamples = 6\nvalue = [[6, 0]\n[4, 2]\n[2, 4]\n[6, 0]\n[6, 0]\n[6, 0]\n[6, 0]]", fillcolor="#f3c5a4"] ;
98 -> 99 ;
100 [label="gini = 0.0\nsamples = 2\nvalue = [[2, 0]\n[0, 2]\n[2, 0]\n[2, 0]\n[2, 0]\n[2, 0]\n[2, 0]]", fillcolor="#e58139"] ;
99 -> 100 ;
101 [label="gini = 0.0\nsamples = 4\nvalue = [[4, 0]\n[4, 0]\n[0, 4]\n[4, 0]\n[4, 0]\n[4, 0]\n[4, 0]]", fillcolor="#e58139"] ;
99 -> 101 ;
102 [label="gini = 0.0\nsamples = 4\nvalue = [[4, 0]\n[4, 0]\n[4, 0]\n[4, 0]\n[4, 0]\n[0, 4]\n[4, 0]]", fillcolor="#e58139"] ;
98 -> 102 ;
103 [label="x[1] <= -1.377\ngini = 0.061\nsamples = 138\nvalue = [[134, 4]\n[138, 0]\n[16, 122]\n[138, 0]\n[131, 7]\n[133, 5]\n[138, 0]]", fillcolor="#eca26d"] ;
63 -> 103 ;
104 [label="gini = 0.0\nsamples = 5\nvalue = [[5, 0]\n[5, 0]\n[5, 0]\n[5, 0]\n[5, 0]\n[0, 5]\n[5, 0]]", fillcolor="#e58139"] ;
103 -> 104 ;
105 [label="x[0] <= 5.945\ngini = 0.044\nsamples = 133\nvalue = [[129, 4]\n[133, 0]\n[11, 122]\n[133, 0]\n[126, 7]\n[133, 0]\n[133, 0]]", fillcolor="#ea995e"] ;
103 -> 105 ;
106 [label="x[18] <= -0.015\ngini = 0.03\nsamples = 129\nvalue = [[126, 3]\n[129, 0]\n[7, 122]\n[129, 0]\n[125, 4]\n[129, 0]\n[129, 0]]", fillcolor="#e89152"] ;
105 -> 106 ;
107 [label="x[8] <= -0.669\ngini = 0.127\nsamples = 3\nvalue = [[1, 2]\n[3, 0]\n[2, 1]\n[3, 0]\n[3, 0]\n[3, 0]\n[3, 0]]", fillcolor="#f3c5a4"] ;
106 -> 107 ;
108 [label="gini = 0.0\nsamples = 1\nvalue = [[1, 0]\n[1, 0]\n[0, 1]\n[1, 0]\n[1, 0]\n[1, 0]\n[1, 0]]", fillcolor="#e58139"] ;
107 -> 108 ;
109 [label="gini = 0.0\nsamples = 2\nvalue = [[0, 2]\n[2, 0]\n[2, 0]\n[2, 0]\n[2, 0]\n[2, 0]\n[2, 0]]", fillcolor="#e58139"] ;
107 -> 109 ;
110 [label="x[2] <= -0.413\ngini = 0.022\nsamples = 126\nvalue = [[125, 1]\n[126, 0]\n[5, 121]\n[126, 0]\n[122, 4]\n[126, 0]\n[126, 0]]", fillcolor="#e78d4b"] ;
106 -> 110 ;
111 [label="x[15] <= 0.062\ngini = 0.134\nsamples = 8\nvalue = [[8, 0]\n[8, 0]\n[3, 5]\n[8, 0]\n[5, 3]\n[8, 0]\n[8, 0]]", fillcolor="#f4c9aa"] ;
110 -> 111 ;
112 [label="gini = 0.0\nsamples = 4\nvalue = [[4, 0]\n[4, 0]\n[0, 4]\n[4, 0]\n[4, 0]\n[4, 0]\n[4, 0]]", fillcolor="#e58139"] ;
111 -> 112 ;
113 [label="x[15] <= 0.064\ngini = 0.107\nsamples = 4\nvalue = [[4, 0]\n[4, 0]\n[3, 1]\n[4, 0]\n[1, 3]\n[4, 0]\n[4, 0]]", fillcolor="#f1bb93"] ;
111 -> 113 ;
114 [label="gini = 0.0\nsamples = 3\nvalue = [[3, 0]\n[3, 0]\n[3, 0]\n[3, 0]\n[0, 3]\n[3, 0]\n[3, 0]]", fillcolor="#e58139"] ;
113 -> 114 ;
115 [label="gini = 0.0\nsamples = 1\nvalue = [[1, 0]\n[1, 0]\n[0, 1]\n[1, 0]\n[1, 0]\n[1, 0]\n[1, 0]]", fillcolor="#e58139"] ;
113 -> 115 ;
116 [label="x[13] <= -0.288\ngini = 0.01\nsamples = 118\nvalue = [[117, 1]\n[118, 0]\n[2, 116]\n[118, 0]\n[117, 1]\n[118, 0]\n[118, 0]]", fillcolor="#e68641"] ;
110 -> 116 ;
117 [label="x[16] <= 0.006\ngini = 0.128\nsamples = 7\nvalue = [[6, 1]\n[7, 0]\n[2, 5]\n[7, 0]\n[6, 1]\n[7, 0]\n[7, 0]]", fillcolor="#f3c6a5"] ;
116 -> 117 ;
118 [label="x[12] <= -0.114\ngini = 0.143\nsamples = 2\nvalue = [[1, 1]\n[2, 0]\n[2, 0]\n[2, 0]\n[1, 1]\n[2, 0]\n[2, 0]]", fillcolor="#f5ceb2"] ;
117 -> 118 ;
119 [label="gini = 0.0\nsamples = 1\nvalue = [[1, 0]\n[1, 0]\n[1, 0]\n[1, 0]\n[0, 1]\n[1, 0]\n[1, 0]]", fillcolor="#e58139"] ;
118 -> 119 ;
120 [label="gini = 0.0\nsamples = 1\nvalue = [[0, 1]\n[1, 0]\n[1, 0]\n[1, 0]\n[1, 0]\n[1, 0]\n[1, 0]]", fillcolor="#e58139"] ;
118 -> 120 ;
121 [label="gini = 0.0\nsamples = 5\nvalue = [[5, 0]\n[5, 0]\n[0, 5]\n[5, 0]\n[5, 0]\n[5, 0]\n[5, 0]]", fillcolor="#e58139"] ;
117 -> 121 ;
122 [label="gini = 0.0\nsamples = 111\nvalue = [[111, 0]\n[111, 0]\n[0, 111]\n[111, 0]\n[111, 0]\n[111, 0]\n[111, 0]]", fillcolor="#e58139"] ;
116 -> 122 ;
123 [label="x[12] <= 0.317\ngini = 0.107\nsamples = 4\nvalue = [[3, 1]\n[4, 0]\n[4, 0]\n[4, 0]\n[1, 3]\n[4, 0]\n[4, 0]]", fillcolor="#f1bb93"] ;
105 -> 123 ;
124 [label="gini = 0.0\nsamples = 3\nvalue = [[3, 0]\n[3, 0]\n[3, 0]\n[3, 0]\n[0, 3]\n[3, 0]\n[3, 0]]", fillcolor="#e58139"] ;
123 -> 124 ;
125 [label="gini = 0.0\nsamples = 1\nvalue = [[0, 1]\n[1, 0]\n[1, 0]\n[1, 0]\n[1, 0]\n[1, 0]\n[1, 0]]", fillcolor="#e58139"] ;
123 -> 125 ;
126 [label="x[0] <= -1.948\ngini = 0.218\nsamples = 4722\nvalue = [[2842.0, 1880.0]\n[4147.0, 575.0]\n[3978.0, 744.0]\n[4084.0, 638.0]\n[4058.0, 664.0]\n[4580.0, 142.0]\n[4643.0, 79.0]]", fillcolor="#fdf6f1"] ;
0 -> 126 [labeldistance=2.5, labelangle=-45, headlabel="False"] ;
127 [label="x[8] <= -0.032\ngini = 0.197\nsamples = 679\nvalue = [[668.0, 11.0]\n[594.0, 85.0]\n[605.0, 74.0]\n[379.0, 300.0]\n[479.0, 200.0]\n[678.0, 1.0]\n[671.0, 8.0]]", fillcolor="#fbebdf"] ;
126 -> 127 ;
128 [label="x[7] <= 0.1\ngini = 0.109\nsamples = 252\nvalue = [[252, 0]\n[224, 28]\n[234, 18]\n[246, 6]\n[57, 195]\n[251, 1]\n[248, 4]]", fillcolor="#f1bc95"] ;
127 -> 128 ;
129 [label="x[5] <= -0.861\ngini = 0.107\nsamples = 4\nvalue = [[4, 0]\n[4, 0]\n[1, 3]\n[4, 0]\n[3, 1]\n[4, 0]\n[4, 0]]", fillcolor="#f1bb93"] ;
128 -> 129 ;
130 [label="gini = 0.0\nsamples = 1\nvalue = [[1, 0]\n[1, 0]\n[1, 0]\n[1, 0]\n[0, 1]\n[1, 0]\n[1, 0]]", fillcolor="#e58139"] ;
129 -> 130 ;
131 [label="gini = 0.0\nsamples = 3\nvalue = [[3, 0]\n[3, 0]\n[0, 3]\n[3, 0]\n[3, 0]\n[3, 0]\n[3, 0]]", fillcolor="#e58139"] ;
129 -> 131 ;
132 [label="x[10] <= -0.02\ngini = 0.106\nsamples = 248\nvalue = [[248, 0]\n[220, 28]\n[233, 15]\n[242, 6]\n[54, 194]\n[247, 1]\n[244, 4]]", fillcolor="#f1ba92"] ;
128 -> 132 ;
133 [label="x[15] <= 0.001\ngini = 0.206\nsamples = 5\nvalue = [[5, 0]\n[4, 1]\n[4, 1]\n[3, 2]\n[4, 1]\n[5, 0]\n[5, 0]]", fillcolor="#fcefe7"] ;
132 -> 133 ;
134 [label="x[2] <= -0.573\ngini = 0.19\nsamples = 3\nvalue = [[3, 0]\n[2, 1]\n[2, 1]\n[3, 0]\n[2, 1]\n[3, 0]\n[3, 0]]", fillcolor="#fae7da"] ;
133 -> 134 ;
135 [label="gini = 0.0\nsamples = 1\nvalue = [[1, 0]\n[0, 1]\n[1, 0]\n[1, 0]\n[1, 0]\n[1, 0]\n[1, 0]]", fillcolor="#e58139"] ;
134 -> 135 ;
136 [label="x[5] <= -0.858\ngini = 0.143\nsamples = 2\nvalue = [[2, 0]\n[2, 0]\n[1, 1]\n[2, 0]\n[1, 1]\n[2, 0]\n[2, 0]]", fillcolor="#f5ceb2"] ;
134 -> 136 ;
137 [label="gini = 0.0\nsamples = 1\nvalue = [[1, 0]\n[1, 0]\n[1, 0]\n[1, 0]\n[0, 1]\n[1, 0]\n[1, 0]]", fillcolor="#e58139"] ;
136 -> 137 ;
138 [label="gini = 0.0\nsamples = 1\nvalue = [[1, 0]\n[1, 0]\n[0, 1]\n[1, 0]\n[1, 0]\n[1, 0]\n[1, 0]]", fillcolor="#e58139"] ;
136 -> 138 ;
139 [label="gini = 0.0\nsamples = 2\nvalue = [[2, 0]\n[2, 0]\n[2, 0]\n[0, 2]\n[2, 0]\n[2, 0]\n[2, 0]]", fillcolor="#e58139"] ;
133 -> 139 ;
140 [label="x[3] <= -0.332\ngini = 0.101\nsamples = 243\nvalue = [[243, 0]\n[216, 27]\n[229, 14]\n[239, 4]\n[50, 193]\n[242, 1]\n[239, 4]]", fillcolor="#f0b78e"] ;
132 -> 140 ;
141 [label="gini = 0.104\nsamples = 235\nvalue = [[235, 0]\n[208, 27]\n[221, 14]\n[231, 4]\n[50, 185]\n[234, 1]\n[231, 4]]", fillcolor="#f0b990"] ;
140 -> 141 ;
142 [label="gini = 0.0\nsamples = 8\nvalue = [[8, 0]\n[8, 0]\n[8, 0]\n[8, 0]\n[0, 8]\n[8, 0]\n[8, 0]]", fillcolor="#e58139"] ;
140 -> 142 ;
143 [label="x[9] <= -0.063\ngini = 0.14\nsamples = 427\nvalue = [[416.0, 11.0]\n[370.0, 57.0]\n[371.0, 56.0]\n[133.0, 294.0]\n[422.0, 5.0]\n[427.0, 0.0]\n[423.0, 4.0]]", fillcolor="#f5ccaf"] ;
127 -> 143 ;
144 [label="x[15] <= 0.001\ngini = 0.197\nsamples = 43\nvalue = [[32, 11]\n[25, 18]\n[32, 11]\n[43, 0]\n[42, 1]\n[43, 0]\n[41, 2]]", fillcolor="#fbebe0"] ;
143 -> 144 ;
145 [label="x[1] <= -0.414\ngini = 0.053\nsamples = 20\nvalue = [[20, 0]\n[2, 18]\n[19, 1]\n[20, 0]\n[20, 0]\n[20, 0]\n[19, 1]]", fillcolor="#eb9d66"] ;
144 -> 145 ;
146 [label="gini = 0.0\nsamples = 1\nvalue = [[1, 0]\n[1, 0]\n[1, 0]\n[1, 0]\n[1, 0]\n[1, 0]\n[0, 1]]", fillcolor="#e58139"] ;
145 -> 146 ;
147 [label="x[15] <= 0.001\ngini = 0.028\nsamples = 19\nvalue = [[19, 0]\n[1, 18]\n[18, 1]\n[19, 0]\n[19, 0]\n[19, 0]\n[19, 0]]", fillcolor="#e89051"] ;
145 -> 147 ;
148 [label="gini = 0.0\nsamples = 14\nvalue = [[14, 0]\n[0, 14]\n[14, 0]\n[14, 0]\n[14, 0]\n[14, 0]\n[14, 0]]", fillcolor="#e58139"] ;
147 -> 148 ;
149 [label="x[6] <= 0.188\ngini = 0.091\nsamples = 5\nvalue = [[5, 0]\n[1, 4]\n[4, 1]\n[5, 0]\n[5, 0]\n[5, 0]\n[5, 0]]", fillcolor="#efb286"] ;
147 -> 149 ;
150 [label="gini = 0.0\nsamples = 1\nvalue = [[1, 0]\n[1, 0]\n[0, 1]\n[1, 0]\n[1, 0]\n[1, 0]\n[1, 0]]", fillcolor="#e58139"] ;
149 -> 150 ;
151 [label="gini = 0.0\nsamples = 4\nvalue = [[4, 0]\n[0, 4]\n[4, 0]\n[4, 0]\n[4, 0]\n[4, 0]\n[4, 0]]", fillcolor="#e58139"] ;
149 -> 151 ;
152 [label="x[15] <= 0.002\ngini = 0.165\nsamples = 23\nvalue = [[12.0, 11.0]\n[23.0, 0.0]\n[13.0, 10.0]\n[23.0, 0.0]\n[22.0, 1.0]\n[23.0, 0.0]\n[22.0, 1.0]]", fillcolor="#f7dac4"] ;
144 -> 152 ;
153 [label="x[10] <= 0.425\ngini = 0.152\nsamples = 14\nvalue = [[11, 3]\n[14, 0]\n[5, 9]\n[14, 0]\n[13, 1]\n[14, 0]\n[13, 1]]", fillcolor="#f6d2b9"] ;
152 -> 153 ;
154 [label="x[7] <= 0.078\ngini = 0.19\nsamples = 6\nvalue = [[3, 3]\n[6, 0]\n[5, 1]\n[6, 0]\n[5, 1]\n[6, 0]\n[5, 1]]", fillcolor="#fae7da"] ;
153 -> 154 ;
155 [label="gini = 0.0\nsamples = 3\nvalue = [[0, 3]\n[3, 0]\n[3, 0]\n[3, 0]\n[3, 0]\n[3, 0]\n[3, 0]]", fillcolor="#e58139"] ;
154 -> 155 ;
156 [label="x[5] <= -0.791\ngini = 0.19\nsamples = 3\nvalue = [[3, 0]\n[3, 0]\n[2, 1]\n[3, 0]\n[2, 1]\n[3, 0]\n[2, 1]]", fillcolor="#fae7da"] ;
154 -> 156 ;
157 [label="gini = 0.0\nsamples = 1\nvalue = [[1, 0]\n[1, 0]\n[1, 0]\n[1, 0]\n[1, 0]\n[1, 0]\n[0, 1]]", fillcolor="#e58139"] ;
156 -> 157 ;
158 [label="x[9] <= -0.08\ngini = 0.143\nsamples = 2\nvalue = [[2, 0]\n[2, 0]\n[1, 1]\n[2, 0]\n[1, 1]\n[2, 0]\n[2, 0]]", fillcolor="#f5ceb2"] ;
156 -> 158 ;
159 [label="gini = 0.0\nsamples = 1\nvalue = [[1, 0]\n[1, 0]\n[1, 0]\n[1, 0]\n[0, 1]\n[1, 0]\n[1, 0]]", fillcolor="#e58139"] ;
158 -> 159 ;
160 [label="gini = 0.0\nsamples = 1\nvalue = [[1, 0]\n[1, 0]\n[0, 1]\n[1, 0]\n[1, 0]\n[1, 0]\n[1, 0]]", fillcolor="#e58139"] ;
158 -> 160 ;
161 [label="gini = 0.0\nsamples = 8\nvalue = [[8, 0]\n[8, 0]\n[0, 8]\n[8, 0]\n[8, 0]\n[8, 0]\n[8, 0]]", fillcolor="#e58139"] ;
153 -> 161 ;
162 [label="x[11] <= 0.002\ngini = 0.056\nsamples = 9\nvalue = [[1, 8]\n[9, 0]\n[8, 1]\n[9, 0]\n[9, 0]\n[9, 0]\n[9, 0]]", fillcolor="#eb9f69"] ;
152 -> 162 ;
163 [label="gini = 0.0\nsamples = 8\nvalue = [[0, 8]\n[8, 0]\n[8, 0]\n[8, 0]\n[8, 0]\n[8, 0]\n[8, 0]]", fillcolor="#e58139"] ;
162 -> 163 ;
164 [label="gini = 0.0\nsamples = 1\nvalue = [[1, 0]\n[1, 0]\n[0, 1]\n[1, 0]\n[1, 0]\n[1, 0]\n[1, 0]]", fillcolor="#e58139"] ;
162 -> 164 ;
165 [label="x[15] <= 0.0\ngini = 0.111\nsamples = 384\nvalue = [[384, 0]\n[345, 39]\n[339, 45]\n[90, 294]\n[380, 4]\n[384, 0]\n[382, 2]]", fillcolor="#f1bd97"] ;
143 -> 165 ;
166 [label="x[17] <= -0.001\ngini = 0.17\nsamples = 34\nvalue = [[34, 0]\n[20, 14]\n[18, 16]\n[30, 4]\n[34, 0]\n[34, 0]\n[34, 0]]", fillcolor="#f8dcc8"] ;
165 -> 166 ;
167 [label="x[14] <= -0.004\ngini = 0.07\nsamples = 14\nvalue = [[14, 0]\n[2, 12]\n[12, 2]\n[14, 0]\n[14, 0]\n[14, 0]\n[14, 0]]", fillcolor="#eda774"] ;
166 -> 167 ;
168 [label="gini = 0.0\nsamples = 8\nvalue = [[8, 0]\n[0, 8]\n[8, 0]\n[8, 0]\n[8, 0]\n[8, 0]\n[8, 0]]", fillcolor="#e58139"] ;
167 -> 168 ;
169 [label="x[0] <= -2.171\ngini = 0.127\nsamples = 6\nvalue = [[6, 0]\n[2, 4]\n[4, 2]\n[6, 0]\n[6, 0]\n[6, 0]\n[6, 0]]", fillcolor="#f3c5a4"] ;
167 -> 169 ;
170 [label="x[1] <= -0.576\ngini = 0.091\nsamples = 5\nvalue = [[5, 0]\n[1, 4]\n[4, 1]\n[5, 0]\n[5, 0]\n[5, 0]\n[5, 0]]", fillcolor="#efb286"] ;
169 -> 170 ;
171 [label="x[7] <= 0.004\ngini = 0.127\nsamples = 3\nvalue = [[3, 0]\n[1, 2]\n[2, 1]\n[3, 0]\n[3, 0]\n[3, 0]\n[3, 0]]", fillcolor="#f3c5a4"] ;
170 -> 171 ;
172 [label="gini = 0.0\nsamples = 1\nvalue = [[1, 0]\n[0, 1]\n[1, 0]\n[1, 0]\n[1, 0]\n[1, 0]\n[1, 0]]", fillcolor="#e58139"] ;
171 -> 172 ;
173 [label="gini = 0.143\nsamples = 2\nvalue = [[2, 0]\n[1, 1]\n[1, 1]\n[2, 0]\n[2, 0]\n[2, 0]\n[2, 0]]", fillcolor="#f5ceb2"] ;
171 -> 173 ;
174 [label="gini = 0.0\nsamples = 2\nvalue = [[2, 0]\n[0, 2]\n[2, 0]\n[2, 0]\n[2, 0]\n[2, 0]\n[2, 0]]", fillcolor="#e58139"] ;
170 -> 174 ;
175 [label="gini = 0.0\nsamples = 1\nvalue = [[1, 0]\n[1, 0]\n[0, 1]\n[1, 0]\n[1, 0]\n[1, 0]\n[1, 0]]", fillcolor="#e58139"] ;
169 -> 175 ;
176 [label="x[15] <= 0.0\ngini = 0.131\nsamples = 20\nvalue = [[20, 0]\n[18, 2]\n[6, 14]\n[16, 4]\n[20, 0]\n[20, 0]\n[20, 0]]", fillcolor="#f4c8a8"] ;
166 -> 176 ;
177 [label="gini = 0.0\nsamples = 9\nvalue = [[9, 0]\n[9, 0]\n[0, 9]\n[9, 0]\n[9, 0]\n[9, 0]\n[9, 0]]", fillcolor="#e58139"] ;
176 -> 177 ;
178 [label="x[12] <= 0.014\ngini = 0.179\nsamples = 11\nvalue = [[11, 0]\n[9, 2]\n[6, 5]\n[7, 4]\n[11, 0]\n[11, 0]\n[11, 0]]", fillcolor="#f9e1d0"] ;
176 -> 178 ;
179 [label="x[11] <= 0.0\ngini = 0.127\nsamples = 3\nvalue = [[3, 0]\n[1, 2]\n[2, 1]\n[3, 0]\n[3, 0]\n[3, 0]\n[3, 0]]", fillcolor="#f3c5a4"] ;
178 -> 179 ;
180 [label="gini = 0.0\nsamples = 1\nvalue = [[1, 0]\n[0, 1]\n[1, 0]\n[1, 0]\n[1, 0]\n[1, 0]\n[1, 0]]", fillcolor="#e58139"] ;
179 -> 180 ;
181 [label="gini = 0.143\nsamples = 2\nvalue = [[2, 0]\n[1, 1]\n[1, 1]\n[2, 0]\n[2, 0]\n[2, 0]\n[2, 0]]", fillcolor="#f5ceb2"] ;
179 -> 181 ;
182 [label="x[8] <= -0.012\ngini = 0.143\nsamples = 8\nvalue = [[8, 0]\n[8, 0]\n[4, 4]\n[4, 4]\n[8, 0]\n[8, 0]\n[8, 0]]", fillcolor="#f5ceb2"] ;
178 -> 182 ;
183 [label="x[1] <= -0.534\ngini = 0.127\nsamples = 6\nvalue = [[6, 0]\n[6, 0]\n[2, 4]\n[4, 2]\n[6, 0]\n[6, 0]\n[6, 0]]", fillcolor="#f3c5a4"] ;
182 -> 183 ;
184 [label="gini = 0.137\nsamples = 5\nvalue = [[5, 0]\n[5, 0]\n[2, 3]\n[3, 2]\n[5, 0]\n[5, 0]\n[5, 0]]", fillcolor="#f4cbad"] ;
183 -> 184 ;
185 [label="gini = 0.0\nsamples = 1\nvalue = [[1, 0]\n[1, 0]\n[0, 1]\n[1, 0]\n[1, 0]\n[1, 0]\n[1, 0]]", fillcolor="#e58139"] ;
183 -> 185 ;
186 [label="gini = 0.0\nsamples = 2\nvalue = [[2, 0]\n[2, 0]\n[2, 0]\n[0, 2]\n[2, 0]\n[2, 0]\n[2, 0]]", fillcolor="#e58139"] ;
182 -> 186 ;
187 [label="x[17] <= -0.0\ngini = 0.086\nsamples = 350\nvalue = [[350.0, 0.0]\n[325.0, 25.0]\n[321.0, 29.0]\n[60.0, 290.0]\n[346.0, 4.0]\n[350.0, 0.0]\n[348.0, 2.0]]", fillcolor="#efaf82"] ;
165 -> 187 ;
188 [label="x[17] <= -0.001\ngini = 0.104\nsamples = 279\nvalue = [[279, 0]\n[254, 25]\n[250, 29]\n[60, 219]\n[275, 4]\n[279, 0]\n[277, 2]]", fillcolor="#f1b991"] ;
187 -> 188 ;
189 [label="x[15] <= 0.001\ngini = 0.071\nsamples = 231\nvalue = [[231, 0]\n[210, 21]\n[225, 6]\n[32, 199]\n[227, 4]\n[231, 0]\n[230, 1]]", fillcolor="#eda775"] ;
188 -> 189 ;
190 [label="x[3] <= 1.988\ngini = 0.135\nsamples = 21\nvalue = [[21, 0]\n[15, 6]\n[21, 0]\n[7, 14]\n[20, 1]\n[21, 0]\n[21, 0]]", fillcolor="#f4c9ab"] ;
189 -> 190 ;
191 [label="x[10] <= -0.487\ngini = 0.07\nsamples = 7\nvalue = [[7, 0]\n[1, 6]\n[7, 0]\n[6, 1]\n[7, 0]\n[7, 0]\n[7, 0]]", fillcolor="#eda774"] ;
190 -> 191 ;
192 [label="gini = 0.0\nsamples = 4\nvalue = [[4, 0]\n[0, 4]\n[4, 0]\n[4, 0]\n[4, 0]\n[4, 0]\n[4, 0]]", fillcolor="#e58139"] ;
191 -> 192 ;
193 [label="x[1] <= -0.437\ngini = 0.127\nsamples = 3\nvalue = [[3, 0]\n[1, 2]\n[3, 0]\n[2, 1]\n[3, 0]\n[3, 0]\n[3, 0]]", fillcolor="#f3c5a4"] ;
191 -> 193 ;
194 [label="gini = 0.143\nsamples = 2\nvalue = [[2, 0]\n[1, 1]\n[2, 0]\n[1, 1]\n[2, 0]\n[2, 0]\n[2, 0]]", fillcolor="#f5ceb2"] ;
193 -> 194 ;
195 [label="gini = 0.0\nsamples = 1\nvalue = [[1, 0]\n[0, 1]\n[1, 0]\n[1, 0]\n[1, 0]\n[1, 0]\n[1, 0]]", fillcolor="#e58139"] ;
193 -> 195 ;
196 [label="x[11] <= 0.001\ngini = 0.038\nsamples = 14\nvalue = [[14, 0]\n[14, 0]\n[14, 0]\n[1, 13]\n[13, 1]\n[14, 0]\n[14, 0]]", fillcolor="#e99559"] ;
190 -> 196 ;
197 [label="gini = 0.0\nsamples = 6\nvalue = [[6, 0]\n[6, 0]\n[6, 0]\n[0, 6]\n[6, 0]\n[6, 0]\n[6, 0]]", fillcolor="#e58139"] ;
196 -> 197 ;
198 [label="x[19] <= 0.001\ngini = 0.062\nsamples = 8\nvalue = [[8, 0]\n[8, 0]\n[8, 0]\n[1, 7]\n[7, 1]\n[8, 0]\n[8, 0]]", fillcolor="#eca36e"] ;
196 -> 198 ;
199 [label="gini = 0.127\nsamples = 3\nvalue = [[3, 0]\n[3, 0]\n[3, 0]\n[1, 2]\n[2, 1]\n[3, 0]\n[3, 0]]", fillcolor="#f3c5a4"] ;
198 -> 199 ;
200 [label="gini = 0.0\nsamples = 5\nvalue = [[5, 0]\n[5, 0]\n[5, 0]\n[0, 5]\n[5, 0]\n[5, 0]\n[5, 0]]", fillcolor="#e58139"] ;
198 -> 200 ;
201 [label="x[14] <= -0.009\ngini = 0.062\nsamples = 210\nvalue = [[210, 0]\n[195, 15]\n[204, 6]\n[25, 185]\n[207, 3]\n[210, 0]\n[209, 1]]", fillcolor="#eca26d"] ;
189 -> 201 ;
202 [label="gini = 0.0\nsamples = 1\nvalue = [[1, 0]\n[1, 0]\n[1, 0]\n[1, 0]\n[0, 1]\n[1, 0]\n[1, 0]]", fillcolor="#e58139"] ;
201 -> 202 ;
203 [label="x[20] <= 0.005\ngini = 0.06\nsamples = 209\nvalue = [[209, 0]\n[194, 15]\n[203, 6]\n[24, 185]\n[207, 2]\n[209, 0]\n[208, 1]]", fillcolor="#eca16c"] ;
201 -> 203 ;
204 [label="x[11] <= 0.001\ngini = 0.058\nsamples = 208\nvalue = [[208, 0]\n[194, 14]\n[202, 6]\n[23, 185]\n[206, 2]\n[208, 0]\n[207, 1]]", fillcolor="#eba06a"] ;
203 -> 204 ;
205 [label="x[0] <= -2.002\ngini = 0.045\nsamples = 167\nvalue = [[167, 0]\n[157, 10]\n[163, 4]\n[14, 153]\n[167, 0]\n[167, 0]\n[167, 0]]", fillcolor="#ea995f"] ;
204 -> 205 ;
206 [label="gini = 0.064\nsamples = 97\nvalue = [[97, 0]\n[88, 9]\n[94, 3]\n[12, 85]\n[97, 0]\n[97, 0]\n[97, 0]]", fillcolor="#eca36f"] ;
205 -> 206 ;
207 [label="gini = 0.016\nsamples = 70\nvalue = [[70, 0]\n[69, 1]\n[69, 1]\n[2, 68]\n[70, 0]\n[70, 0]\n[70, 0]]", fillcolor="#e78a46"] ;
205 -> 207 ;
208 [label="x[13] <= -0.011\ngini = 0.107\nsamples = 41\nvalue = [[41, 0]\n[37, 4]\n[39, 2]\n[9, 32]\n[39, 2]\n[41, 0]\n[40, 1]]", fillcolor="#f1bb94"] ;
204 -> 208 ;
209 [label="gini = 0.09\nsamples = 39\nvalue = [[39, 0]\n[35, 4]\n[38, 1]\n[7, 32]\n[38, 1]\n[39, 0]\n[38, 1]]", fillcolor="#efb185"] ;
208 -> 209 ;
210 [label="gini = 0.143\nsamples = 2\nvalue = [[2, 0]\n[2, 0]\n[1, 1]\n[2, 0]\n[1, 1]\n[2, 0]\n[2, 0]]", fillcolor="#f5ceb2"] ;
208 -> 210 ;
211 [label="gini = 0.0\nsamples = 1\nvalue = [[1, 0]\n[0, 1]\n[1, 0]\n[1, 0]\n[1, 0]\n[1, 0]\n[1, 0]]", fillcolor="#e58139"] ;
203 -> 211 ;
212 [label="x[8] <= -0.026\ngini = 0.168\nsamples = 48\nvalue = [[48, 0]\n[44, 4]\n[25, 23]\n[28, 20]\n[48, 0]\n[48, 0]\n[47, 1]]", fillcolor="#f8dbc7"] ;
188 -> 212 ;
213 [label="x[11] <= 0.001\ngini = 0.073\nsamples = 21\nvalue = [[21, 0]\n[20, 1]\n[19, 2]\n[3, 18]\n[21, 0]\n[21, 0]\n[21, 0]]", fillcolor="#eda876"] ;
212 -> 213 ;
214 [label="x[2] <= -0.565\ngini = 0.028\nsamples = 19\nvalue = [[19, 0]\n[18, 1]\n[19, 0]\n[1, 18]\n[19, 0]\n[19, 0]\n[19, 0]]", fillcolor="#e89051"] ;
213 -> 214 ;
215 [label="gini = 0.0\nsamples = 18\nvalue = [[18, 0]\n[18, 0]\n[18, 0]\n[0, 18]\n[18, 0]\n[18, 0]\n[18, 0]]", fillcolor="#e58139"] ;
214 -> 215 ;
216 [label="gini = 0.0\nsamples = 1\nvalue = [[1, 0]\n[0, 1]\n[1, 0]\n[1, 0]\n[1, 0]\n[1, 0]\n[1, 0]]", fillcolor="#e58139"] ;
214 -> 216 ;
217 [label="gini = 0.0\nsamples = 2\nvalue = [[2, 0]\n[2, 0]\n[0, 2]\n[2, 0]\n[2, 0]\n[2, 0]\n[2, 0]]", fillcolor="#e58139"] ;
213 -> 217 ;
218 [label="x[13] <= -0.009\ngini = 0.107\nsamples = 27\nvalue = [[27, 0]\n[24, 3]\n[6, 21]\n[25, 2]\n[27, 0]\n[27, 0]\n[26, 1]]", fillcolor="#f1bb94"] ;
212 -> 218 ;
219 [label="gini = 0.0\nsamples = 1\nvalue = [[1, 0]\n[0, 1]\n[1, 0]\n[1, 0]\n[1, 0]\n[1, 0]\n[1, 0]]", fillcolor="#e58139"] ;
218 -> 219 ;
220 [label="x[17] <= -0.001\ngini = 0.096\nsamples = 26\nvalue = [[26, 0]\n[24, 2]\n[5, 21]\n[24, 2]\n[26, 0]\n[26, 0]\n[25, 1]]", fillcolor="#f0b48a"] ;
218 -> 220 ;
221 [label="x[13] <= -0.008\ngini = 0.081\nsamples = 25\nvalue = [[25, 0]\n[24, 1]\n[4, 21]\n[23, 2]\n[25, 0]\n[25, 0]\n[24, 1]]", fillcolor="#eead7e"] ;
220 -> 221 ;
222 [label="x[3] <= 1.179\ngini = 0.152\nsamples = 8\nvalue = [[8, 0]\n[8, 0]\n[3, 5]\n[6, 2]\n[8, 0]\n[8, 0]\n[7, 1]]", fillcolor="#f6d2b9"] ;
221 -> 222 ;
223 [label="gini = 0.0\nsamples = 5\nvalue = [[5, 0]\n[5, 0]\n[0, 5]\n[5, 0]\n[5, 0]\n[5, 0]\n[5, 0]]", fillcolor="#e58139"] ;
222 -> 223 ;
224 [label="gini = 0.127\nsamples = 3\nvalue = [[3, 0]\n[3, 0]\n[3, 0]\n[1, 2]\n[3, 0]\n[3, 0]\n[2, 1]]", fillcolor="#f3c5a4"] ;
222 -> 224 ;
225 [label="x[3] <= 1.896\ngini = 0.032\nsamples = 17\nvalue = [[17, 0]\n[16, 1]\n[1, 16]\n[17, 0]\n[17, 0]\n[17, 0]\n[17, 0]]", fillcolor="#e99254"] ;
221 -> 225 ;
226 [label="gini = 0.0\nsamples = 10\nvalue = [[10, 0]\n[10, 0]\n[0, 10]\n[10, 0]\n[10, 0]\n[10, 0]\n[10, 0]]", fillcolor="#e58139"] ;
225 -> 226 ;
227 [label="gini = 0.07\nsamples = 7\nvalue = [[7, 0]\n[6, 1]\n[1, 6]\n[7, 0]\n[7, 0]\n[7, 0]\n[7, 0]]", fillcolor="#eda774"] ;
225 -> 227 ;
228 [label="gini = 0.0\nsamples = 1\nvalue = [[1, 0]\n[0, 1]\n[1, 0]\n[1, 0]\n[1, 0]\n[1, 0]\n[1, 0]]", fillcolor="#e58139"] ;
220 -> 228 ;
229 [label="gini = 0.0\nsamples = 71\nvalue = [[71, 0]\n[71, 0]\n[71, 0]\n[0, 71]\n[71, 0]\n[71, 0]\n[71, 0]]", fillcolor="#e58139"] ;
187 -> 229 ;
230 [label="x[6] <= 0.199\ngini = 0.206\nsamples = 4043\nvalue = [[2174, 1869]\n[3553, 490]\n[3373, 670]\n[3705, 338]\n[3579, 464]\n[3902, 141]\n[3972, 71]]", fillcolor="#fcf0e7"] ;
126 -> 230 ;
231 [label="x[12] <= 0.028\ngini = 0.23\nsamples = 1956\nvalue = [[1387, 569]\n[1636, 320]\n[1592, 364]\n[1725, 231]\n[1601, 355]\n[1895, 61]\n[1900, 56]]", fillcolor="#fefdfb"] ;
230 -> 231 ;
232 [label="x[9] <= -0.07\ngini = 0.197\nsamples = 1008\nvalue = [[522, 486]\n[797, 211]\n[837, 171]\n[950, 58]\n[992, 16]\n[990, 18]\n[960, 48]]", fillcolor="#fbebdf"] ;
231 -> 232 ;
233 [label="x[12] <= 0.02\ngini = 0.214\nsamples = 291\nvalue = [[247.0, 44.0]\n[223.0, 68.0]\n[180.0, 111.0]\n[280.0, 11.0]\n[285.0, 6.0]\n[286.0, 5.0]\n[245.0, 46.0]]", fillcolor="#fdf4ee"] ;
232 -> 233 ;
234 [label="x[11] <= 0.529\ngini = 0.199\nsamples = 248\nvalue = [[205, 43]\n[181, 67]\n[138, 110]\n[237, 11]\n[242, 6]\n[243, 5]\n[242, 6]]", fillcolor="#fbece1"] ;
233 -> 234 ;
235 [label="x[17] <= 0.155\ngini = 0.21\nsamples = 149\nvalue = [[115, 34]\n[91, 58]\n[114, 35]\n[140, 9]\n[144, 5]\n[146, 3]\n[144, 5]]", fillcolor="#fcf2ea"] ;
234 -> 235 ;
236 [label="x[18] <= -0.008\ngini = 0.204\nsamples = 132\nvalue = [[114, 18]\n[74, 58]\n[98, 34]\n[123, 9]\n[127, 5]\n[129, 3]\n[127, 5]]", fillcolor="#fcefe5"] ;
235 -> 236 ;
237 [label="x[15] <= 0.016\ngini = 0.175\nsamples = 85\nvalue = [[68.0, 17.0]\n[36.0, 49.0]\n[77.0, 8.0]\n[81.0, 4.0]\n[85.0, 0.0]\n[82.0, 3.0]\n[81.0, 4.0]]", fillcolor="#f8dfcd"] ;
236 -> 237 ;
238 [label="x[10] <= 0.077\ngini = 0.21\nsamples = 41\nvalue = [[27.0, 14.0]\n[28.0, 13.0]\n[33.0, 8.0]\n[38.0, 3.0]\n[41.0, 0.0]\n[38.0, 3.0]\n[41.0, 0.0]]", fillcolor="#fcf2ea"] ;
237 -> 238 ;
239 [label="x[22] <= -0.018\ngini = 0.199\nsamples = 38\nvalue = [[24, 14]\n[25, 13]\n[30, 8]\n[35, 3]\n[38, 0]\n[38, 0]\n[38, 0]]", fillcolor="#fbece1"] ;
238 -> 239 ;
240 [label="gini = 0.0\nsamples = 3\nvalue = [[3, 0]\n[3, 0]\n[0, 3]\n[3, 0]\n[3, 0]\n[3, 0]\n[3, 0]]", fillcolor="#e58139"] ;
239 -> 240 ;
241 [label="gini = 0.193\nsamples = 35\nvalue = [[21, 14]\n[22, 13]\n[30, 5]\n[32, 3]\n[35, 0]\n[35, 0]\n[35, 0]]", fillcolor="#fae8dc"] ;
239 -> 241 ;
242 [label="gini = 0.0\nsamples = 3\nvalue = [[3, 0]\n[3, 0]\n[3, 0]\n[3, 0]\n[3, 0]\n[0, 3]\n[3, 0]]", fillcolor="#e58139"] ;
238 -> 242 ;
243 [label="x[16] <= -0.002\ngini = 0.091\nsamples = 44\nvalue = [[41, 3]\n[8, 36]\n[44, 0]\n[43, 1]\n[44, 0]\n[44, 0]\n[40, 4]]", fillcolor="#efb285"] ;
237 -> 243 ;
244 [label="x[14] <= -0.041\ngini = 0.143\nsamples = 6\nvalue = [[5, 1]\n[6, 0]\n[6, 0]\n[5, 1]\n[6, 0]\n[6, 0]\n[2, 4]]", fillcolor="#f5ceb2"] ;
243 -> 244 ;
245 [label="gini = 0.0\nsamples = 4\nvalue = [[4, 0]\n[4, 0]\n[4, 0]\n[4, 0]\n[4, 0]\n[4, 0]\n[0, 4]]", fillcolor="#e58139"] ;
244 -> 245 ;
246 [label="gini = 0.143\nsamples = 2\nvalue = [[1, 1]\n[2, 0]\n[2, 0]\n[1, 1]\n[2, 0]\n[2, 0]\n[2, 0]]", fillcolor="#f5ceb2"] ;
244 -> 246 ;
247 [label="x[14] <= -0.15\ngini = 0.028\nsamples = 38\nvalue = [[36, 2]\n[2, 36]\n[38, 0]\n[38, 0]\n[38, 0]\n[38, 0]\n[38, 0]]", fillcolor="#e89051"] ;
243 -> 247 ;
248 [label="gini = 0.0\nsamples = 1\nvalue = [[0, 1]\n[1, 0]\n[1, 0]\n[1, 0]\n[1, 0]\n[1, 0]\n[1, 0]]", fillcolor="#e58139"] ;
247 -> 248 ;
249 [label="gini = 0.015\nsamples = 37\nvalue = [[36, 1]\n[1, 36]\n[37, 0]\n[37, 0]\n[37, 0]\n[37, 0]\n[37, 0]]", fillcolor="#e78946"] ;
247 -> 249 ;
250 [label="x[15] <= 0.039\ngini = 0.181\nsamples = 47\nvalue = [[46, 1]\n[38, 9]\n[21, 26]\n[42, 5]\n[42, 5]\n[47, 0]\n[46, 1]]", fillcolor="#f9e2d2"] ;
236 -> 250 ;
251 [label="x[7] <= 0.077\ngini = 0.208\nsamples = 28\nvalue = [[27, 1]\n[19, 9]\n[18, 10]\n[23, 5]\n[26, 2]\n[28, 0]\n[27, 1]]", fillcolor="#fcf1e9"] ;
250 -> 251 ;
252 [label="x[17] <= 0.061\ngini = 0.208\nsamples = 24\nvalue = [[23, 1]\n[19, 5]\n[14, 10]\n[19, 5]\n[22, 2]\n[24, 0]\n[23, 1]]", fillcolor="#fcf1e9"] ;
251 -> 252 ;
253 [label="gini = 0.198\nsamples = 21\nvalue = [[20, 1]\n[19, 2]\n[11, 10]\n[16, 5]\n[19, 2]\n[21, 0]\n[20, 1]]", fillcolor="#fbebe0"] ;
252 -> 253 ;
254 [label="gini = 0.0\nsamples = 3\nvalue = [[3, 0]\n[0, 3]\n[3, 0]\n[3, 0]\n[3, 0]\n[3, 0]\n[3, 0]]", fillcolor="#e58139"] ;
252 -> 254 ;
255 [label="gini = 0.0\nsamples = 4\nvalue = [[4, 0]\n[0, 4]\n[4, 0]\n[4, 0]\n[4, 0]\n[4, 0]\n[4, 0]]", fillcolor="#e58139"] ;
251 -> 255 ;
256 [label="x[10] <= 0.005\ngini = 0.076\nsamples = 19\nvalue = [[19, 0]\n[19, 0]\n[3, 16]\n[19, 0]\n[16, 3]\n[19, 0]\n[19, 0]]", fillcolor="#edaa79"] ;
250 -> 256 ;
257 [label="gini = 0.0\nsamples = 15\nvalue = [[15, 0]\n[15, 0]\n[0, 15]\n[15, 0]\n[15, 0]\n[15, 0]\n[15, 0]]", fillcolor="#e58139"] ;
256 -> 257 ;
258 [label="x[7] <= 0.123\ngini = 0.107\nsamples = 4\nvalue = [[4, 0]\n[4, 0]\n[3, 1]\n[4, 0]\n[1, 3]\n[4, 0]\n[4, 0]]", fillcolor="#f1bb93"] ;
256 -> 258 ;
259 [label="gini = 0.0\nsamples = 3\nvalue = [[3, 0]\n[3, 0]\n[3, 0]\n[3, 0]\n[0, 3]\n[3, 0]\n[3, 0]]", fillcolor="#e58139"] ;
258 -> 259 ;
260 [label="gini = 0.0\nsamples = 1\nvalue = [[1, 0]\n[1, 0]\n[0, 1]\n[1, 0]\n[1, 0]\n[1, 0]\n[1, 0]]", fillcolor="#e58139"] ;
258 -> 260 ;
261 [label="x[5] <= 0.814\ngini = 0.032\nsamples = 17\nvalue = [[1, 16]\n[17, 0]\n[16, 1]\n[17, 0]\n[17, 0]\n[17, 0]\n[17, 0]]", fillcolor="#e99254"] ;
235 -> 261 ;
262 [label="gini = 0.0\nsamples = 1\nvalue = [[1, 0]\n[1, 0]\n[0, 1]\n[1, 0]\n[1, 0]\n[1, 0]\n[1, 0]]", fillcolor="#e58139"] ;
261 -> 262 ;
263 [label="gini = 0.0\nsamples = 16\nvalue = [[0, 16]\n[16, 0]\n[16, 0]\n[16, 0]\n[16, 0]\n[16, 0]\n[16, 0]]", fillcolor="#e58139"] ;
261 -> 263 ;
264 [label="x[20] <= 0.055\ngini = 0.117\nsamples = 99\nvalue = [[90, 9]\n[90, 9]\n[24, 75]\n[97, 2]\n[98, 1]\n[97, 2]\n[98, 1]]", fillcolor="#f2c09b"] ;
234 -> 264 ;
265 [label="x[10] <= -0.027\ngini = 0.072\nsamples = 80\nvalue = [[75, 5]\n[80, 0]\n[11, 69]\n[78, 2]\n[79, 1]\n[78, 2]\n[79, 1]]", fillcolor="#eda775"] ;
264 -> 265 ;
266 [label="x[18] <= 0.046\ngini = 0.055\nsamples = 77\nvalue = [[72.0, 5.0]\n[77.0, 0.0]\n[8.0, 69.0]\n[75.0, 2.0]\n[77.0, 0.0]\n[77.0, 0.0]\n[76.0, 1.0]]", fillcolor="#eb9e67"] ;
265 -> 266 ;
267 [label="x[19] <= -0.052\ngini = 0.038\nsamples = 71\nvalue = [[69, 2]\n[71, 0]\n[5, 66]\n[69, 2]\n[71, 0]\n[71, 0]\n[70, 1]]", fillcolor="#e99659"] ;
266 -> 267 ;
268 [label="gini = 0.0\nsamples = 1\nvalue = [[1, 0]\n[1, 0]\n[1, 0]\n[1, 0]\n[1, 0]\n[1, 0]\n[0, 1]]", fillcolor="#e58139"] ;
267 -> 268 ;
269 [label="x[15] <= 0.385\ngini = 0.031\nsamples = 70\nvalue = [[68, 2]\n[70, 0]\n[4, 66]\n[68, 2]\n[70, 0]\n[70, 0]\n[70, 0]]", fillcolor="#e89253"] ;
267 -> 269 ;
270 [label="gini = 0.017\nsamples = 65\nvalue = [[63, 2]\n[65, 0]\n[2, 63]\n[65, 0]\n[65, 0]\n[65, 0]\n[65, 0]]", fillcolor="#e78a47"] ;
269 -> 270 ;
271 [label="gini = 0.137\nsamples = 5\nvalue = [[5, 0]\n[5, 0]\n[2, 3]\n[3, 2]\n[5, 0]\n[5, 0]\n[5, 0]]", fillcolor="#f4cbad"] ;
269 -> 271 ;
272 [label="x[16] <= -0.069\ngini = 0.143\nsamples = 6\nvalue = [[3, 3]\n[6, 0]\n[3, 3]\n[6, 0]\n[6, 0]\n[6, 0]\n[6, 0]]", fillcolor="#f5ceb2"] ;
266 -> 272 ;
273 [label="gini = 0.0\nsamples = 2\nvalue = [[0, 2]\n[2, 0]\n[2, 0]\n[2, 0]\n[2, 0]\n[2, 0]\n[2, 0]]", fillcolor="#e58139"] ;
272 -> 273 ;
274 [label="x[0] <= 0.016\ngini = 0.107\nsamples = 4\nvalue = [[3, 1]\n[4, 0]\n[1, 3]\n[4, 0]\n[4, 0]\n[4, 0]\n[4, 0]]", fillcolor="#f1bb93"] ;
272 -> 274 ;
275 [label="gini = 0.0\nsamples = 1\nvalue = [[0, 1]\n[1, 0]\n[1, 0]\n[1, 0]\n[1, 0]\n[1, 0]\n[1, 0]]", fillcolor="#e58139"] ;
274 -> 275 ;
276 [label="gini = 0.0\nsamples = 3\nvalue = [[3, 0]\n[3, 0]\n[0, 3]\n[3, 0]\n[3, 0]\n[3, 0]\n[3, 0]]", fillcolor="#e58139"] ;
274 -> 276 ;
277 [label="x[12] <= -0.307\ngini = 0.127\nsamples = 3\nvalue = [[3, 0]\n[3, 0]\n[3, 0]\n[3, 0]\n[2, 1]\n[1, 2]\n[3, 0]]", fillcolor="#f3c5a4"] ;
265 -> 277 ;
278 [label="gini = 0.0\nsamples = 2\nvalue = [[2, 0]\n[2, 0]\n[2, 0]\n[2, 0]\n[2, 0]\n[0, 2]\n[2, 0]]", fillcolor="#e58139"] ;
277 -> 278 ;
279 [label="gini = 0.0\nsamples = 1\nvalue = [[1, 0]\n[1, 0]\n[1, 0]\n[1, 0]\n[0, 1]\n[1, 0]\n[1, 0]]", fillcolor="#e58139"] ;
277 -> 279 ;
280 [label="x[17] <= 0.059\ngini = 0.18\nsamples = 19\nvalue = [[15, 4]\n[10, 9]\n[13, 6]\n[19, 0]\n[19, 0]\n[19, 0]\n[19, 0]]", fillcolor="#f9e2d1"] ;
264 -> 280 ;
281 [label="x[15] <= -0.02\ngini = 0.127\nsamples = 6\nvalue = [[2, 4]\n[4, 2]\n[6, 0]\n[6, 0]\n[6, 0]\n[6, 0]\n[6, 0]]", fillcolor="#f3c5a4"] ;
280 -> 281 ;
282 [label="gini = 0.0\nsamples = 2\nvalue = [[2, 0]\n[0, 2]\n[2, 0]\n[2, 0]\n[2, 0]\n[2, 0]\n[2, 0]]", fillcolor="#e58139"] ;
281 -> 282 ;
283 [label="gini = 0.0\nsamples = 4\nvalue = [[0, 4]\n[4, 0]\n[4, 0]\n[4, 0]\n[4, 0]\n[4, 0]\n[4, 0]]", fillcolor="#e58139"] ;
281 -> 283 ;
284 [label="x[15] <= 0.005\ngini = 0.142\nsamples = 13\nvalue = [[13, 0]\n[6, 7]\n[7, 6]\n[13, 0]\n[13, 0]\n[13, 0]\n[13, 0]]", fillcolor="#f5cdb1"] ;
280 -> 284 ;
285 [label="gini = 0.0\nsamples = 5\nvalue = [[5, 0]\n[5, 0]\n[0, 5]\n[5, 0]\n[5, 0]\n[5, 0]\n[5, 0]]", fillcolor="#e58139"] ;
284 -> 285 ;
286 [label="x[22] <= 0.033\ngini = 0.062\nsamples = 8\nvalue = [[8, 0]\n[1, 7]\n[7, 1]\n[8, 0]\n[8, 0]\n[8, 0]\n[8, 0]]", fillcolor="#eca36e"] ;
284 -> 286 ;
287 [label="gini = 0.0\nsamples = 7\nvalue = [[7, 0]\n[0, 7]\n[7, 0]\n[7, 0]\n[7, 0]\n[7, 0]\n[7, 0]]", fillcolor="#e58139"] ;
286 -> 287 ;
288 [label="gini = 0.0\nsamples = 1\nvalue = [[1, 0]\n[1, 0]\n[0, 1]\n[1, 0]\n[1, 0]\n[1, 0]\n[1, 0]]", fillcolor="#e58139"] ;
286 -> 288 ;
289 [label="x[7] <= 0.134\ngini = 0.038\nsamples = 43\nvalue = [[42, 1]\n[42, 1]\n[42, 1]\n[43, 0]\n[43, 0]\n[43, 0]\n[3, 40]]", fillcolor="#e99559"] ;
233 -> 289 ;
290 [label="x[15] <= 0.005\ngini = 0.19\nsamples = 3\nvalue = [[2, 1]\n[2, 1]\n[2, 1]\n[3, 0]\n[3, 0]\n[3, 0]\n[3, 0]]", fillcolor="#fae7da"] ;
289 -> 290 ;
291 [label="gini = 0.0\nsamples = 1\nvalue = [[1, 0]\n[0, 1]\n[1, 0]\n[1, 0]\n[1, 0]\n[1, 0]\n[1, 0]]", fillcolor="#e58139"] ;
290 -> 291 ;
292 [label="x[0] <= -1.401\ngini = 0.143\nsamples = 2\nvalue = [[1, 1]\n[2, 0]\n[1, 1]\n[2, 0]\n[2, 0]\n[2, 0]\n[2, 0]]", fillcolor="#f5ceb2"] ;
290 -> 292 ;
293 [label="gini = 0.0\nsamples = 1\nvalue = [[1, 0]\n[1, 0]\n[0, 1]\n[1, 0]\n[1, 0]\n[1, 0]\n[1, 0]]", fillcolor="#e58139"] ;
292 -> 293 ;
294 [label="gini = 0.0\nsamples = 1\nvalue = [[0, 1]\n[1, 0]\n[1, 0]\n[1, 0]\n[1, 0]\n[1, 0]\n[1, 0]]", fillcolor="#e58139"] ;
292 -> 294 ;
295 [label="gini = 0.0\nsamples = 40\nvalue = [[40, 0]\n[40, 0]\n[40, 0]\n[40, 0]\n[40, 0]\n[40, 0]\n[0, 40]]", fillcolor="#e58139"] ;
289 -> 295 ;
296 [label="x[2] <= -0.558\ngini = 0.162\nsamples = 717\nvalue = [[275.0, 442.0]\n[574.0, 143.0]\n[657.0, 60.0]\n[670.0, 47.0]\n[707.0, 10.0]\n[704.0, 13.0]\n[715.0, 2.0]]", fillcolor="#f7d8c2"] ;
232 -> 296 ;
297 [label="x[13] <= 0.013\ngini = 0.009\nsamples = 184\nvalue = [[3, 181]\n[184, 0]\n[181, 3]\n[184, 0]\n[184, 0]\n[184, 0]\n[184, 0]]", fillcolor="#e68641"] ;
296 -> 297 ;
298 [label="x[11] <= 0.102\ngini = 0.003\nsamples = 181\nvalue = [[1, 180]\n[181, 0]\n[180, 1]\n[181, 0]\n[181, 0]\n[181, 0]\n[181, 0]]", fillcolor="#e5833c"] ;
297 -> 298 ;
299 [label="gini = 0.0\nsamples = 179\nvalue = [[0, 179]\n[179, 0]\n[179, 0]\n[179, 0]\n[179, 0]\n[179, 0]\n[179, 0]]", fillcolor="#e58139"] ;
298 -> 299 ;
300 [label="x[5] <= -1.7\ngini = 0.143\nsamples = 2\nvalue = [[1, 1]\n[2, 0]\n[1, 1]\n[2, 0]\n[2, 0]\n[2, 0]\n[2, 0]]", fillcolor="#f5ceb2"] ;
298 -> 300 ;
301 [label="gini = 0.0\nsamples = 1\nvalue = [[0, 1]\n[1, 0]\n[1, 0]\n[1, 0]\n[1, 0]\n[1, 0]\n[1, 0]]", fillcolor="#e58139"] ;
300 -> 301 ;
302 [label="gini = 0.0\nsamples = 1\nvalue = [[1, 0]\n[1, 0]\n[0, 1]\n[1, 0]\n[1, 0]\n[1, 0]\n[1, 0]]", fillcolor="#e58139"] ;
300 -> 302 ;
303 [label="x[0] <= 1.514\ngini = 0.127\nsamples = 3\nvalue = [[2, 1]\n[3, 0]\n[1, 2]\n[3, 0]\n[3, 0]\n[3, 0]\n[3, 0]]", fillcolor="#f3c5a4"] ;
297 -> 303 ;
304 [label="gini = 0.0\nsamples = 1\nvalue = [[0, 1]\n[1, 0]\n[1, 0]\n[1, 0]\n[1, 0]\n[1, 0]\n[1, 0]]", fillcolor="#e58139"] ;
303 -> 304 ;
305 [label="gini = 0.0\nsamples = 2\nvalue = [[2, 0]\n[2, 0]\n[0, 2]\n[2, 0]\n[2, 0]\n[2, 0]\n[2, 0]]", fillcolor="#e58139"] ;
303 -> 305 ;
306 [label="x[16] <= -0.002\ngini = 0.191\nsamples = 533\nvalue = [[272.0, 261.0]\n[390.0, 143.0]\n[476.0, 57.0]\n[486.0, 47.0]\n[523.0, 10.0]\n[520.0, 13.0]\n[531.0, 2.0]]", fillcolor="#fae7da"] ;
296 -> 306 ;
307 [label="x[11] <= -0.054\ngini = 0.164\nsamples = 308\nvalue = [[120.0, 188.0]\n[254.0, 54.0]\n[298.0, 10.0]\n[264.0, 44.0]\n[301.0, 7.0]\n[304.0, 4.0]\n[307.0, 1.0]]", fillcolor="#f7d9c3"] ;
306 -> 307 ;
308 [label="x[18] <= -0.01\ngini = 0.095\nsamples = 197\nvalue = [[39.0, 158.0]\n[166.0, 31.0]\n[193.0, 4.0]\n[197.0, 0.0]\n[197.0, 0.0]\n[193.0, 4.0]\n[197.0, 0.0]]", fillcolor="#efb489"] ;
307 -> 308 ;
309 [label="x[13] <= 0.054\ngini = 0.051\nsamples = 151\nvalue = [[15.0, 136.0]\n[136.0, 15.0]\n[151.0, 0.0]\n[151.0, 0.0]\n[151.0, 0.0]\n[151.0, 0.0]\n[151.0, 0.0]]", fillcolor="#eb9c64"] ;
308 -> 309 ;
310 [label="x[21] <= 0.013\ngini = 0.037\nsamples = 145\nvalue = [[10, 135]\n[135, 10]\n[145, 0]\n[145, 0]\n[145, 0]\n[145, 0]\n[145, 0]]", fillcolor="#e99558"] ;
309 -> 310 ;
311 [label="x[12] <= 0.021\ngini = 0.03\nsamples = 143\nvalue = [[8, 135]\n[135, 8]\n[143, 0]\n[143, 0]\n[143, 0]\n[143, 0]\n[143, 0]]", fillcolor="#e89152"] ;
310 -> 311 ;
312 [label="gini = 0.027\nsamples = 142\nvalue = [[7.0, 135.0]\n[135.0, 7.0]\n[142.0, 0.0]\n[142.0, 0.0]\n[142.0, 0.0]\n[142.0, 0.0]\n[142.0, 0.0]]", fillcolor="#e88f50"] ;
311 -> 312 ;
313 [label="gini = 0.0\nsamples = 1\nvalue = [[1, 0]\n[0, 1]\n[1, 0]\n[1, 0]\n[1, 0]\n[1, 0]\n[1, 0]]", fillcolor="#e58139"] ;
311 -> 313 ;
314 [label="gini = 0.0\nsamples = 2\nvalue = [[2, 0]\n[0, 2]\n[2, 0]\n[2, 0]\n[2, 0]\n[2, 0]\n[2, 0]]", fillcolor="#e58139"] ;
310 -> 314 ;
315 [label="x[17] <= 0.146\ngini = 0.079\nsamples = 6\nvalue = [[5, 1]\n[1, 5]\n[6, 0]\n[6, 0]\n[6, 0]\n[6, 0]\n[6, 0]]", fillcolor="#eeac7c"] ;
309 -> 315 ;
316 [label="gini = 0.0\nsamples = 5\nvalue = [[5, 0]\n[0, 5]\n[5, 0]\n[5, 0]\n[5, 0]\n[5, 0]\n[5, 0]]", fillcolor="#e58139"] ;
315 -> 316 ;
317 [label="gini = 0.0\nsamples = 1\nvalue = [[0, 1]\n[1, 0]\n[1, 0]\n[1, 0]\n[1, 0]\n[1, 0]\n[1, 0]]", fillcolor="#e58139"] ;
315 -> 317 ;
318 [label="x[16] <= -0.02\ngini = 0.181\nsamples = 46\nvalue = [[24, 22]\n[30, 16]\n[42, 4]\n[46, 0]\n[46, 0]\n[42, 4]\n[46, 0]]", fillcolor="#f9e2d2"] ;
308 -> 318 ;
319 [label="x[19] <= -0.012\ngini = 0.15\nsamples = 35\nvalue = [[13, 22]\n[26, 9]\n[31, 4]\n[35, 0]\n[35, 0]\n[35, 0]\n[35, 0]]", fillcolor="#f6d2b8"] ;
318 -> 319 ;
320 [label="gini = 0.0\nsamples = 3\nvalue = [[3, 0]\n[3, 0]\n[0, 3]\n[3, 0]\n[3, 0]\n[3, 0]\n[3, 0]]", fillcolor="#e58139"] ;
319 -> 320 ;
321 [label="x[1] <= -0.953\ngini = 0.128\nsamples = 32\nvalue = [[10, 22]\n[23, 9]\n[31, 1]\n[32, 0]\n[32, 0]\n[32, 0]\n[32, 0]]", fillcolor="#f3c6a5"] ;
319 -> 321 ;
322 [label="gini = 0.16\nsamples = 15\nvalue = [[8, 7]\n[8, 7]\n[14, 1]\n[15, 0]\n[15, 0]\n[15, 0]\n[15, 0]]", fillcolor="#f7d7c0"] ;
321 -> 322 ;
323 [label="gini = 0.059\nsamples = 17\nvalue = [[2, 15]\n[15, 2]\n[17, 0]\n[17, 0]\n[17, 0]\n[17, 0]\n[17, 0]]", fillcolor="#eca16b"] ;
321 -> 323 ;
324 [label="x[10] <= 0.032\ngini = 0.132\nsamples = 11\nvalue = [[11, 0]\n[4, 7]\n[11, 0]\n[11, 0]\n[11, 0]\n[7, 4]\n[11, 0]]", fillcolor="#f4c8a9"] ;
318 -> 324 ;
325 [label="gini = 0.0\nsamples = 7\nvalue = [[7, 0]\n[0, 7]\n[7, 0]\n[7, 0]\n[7, 0]\n[7, 0]\n[7, 0]]", fillcolor="#e58139"] ;
324 -> 325 ;
326 [label="gini = 0.0\nsamples = 4\nvalue = [[4, 0]\n[4, 0]\n[4, 0]\n[4, 0]\n[4, 0]\n[0, 4]\n[4, 0]]", fillcolor="#e58139"] ;
324 -> 326 ;
327 [label="x[17] <= 0.001\ngini = 0.206\nsamples = 111\nvalue = [[81.0, 30.0]\n[88.0, 23.0]\n[105.0, 6.0]\n[67.0, 44.0]\n[104.0, 7.0]\n[111.0, 0.0]\n[110.0, 1.0]]", fillcolor="#fcefe7"] ;
307 -> 327 ;
328 [label="x[7] <= -0.017\ngini = 0.132\nsamples = 56\nvalue = [[50, 6]\n[49, 7]\n[55, 1]\n[16, 40]\n[55, 1]\n[56, 0]\n[55, 1]]", fillcolor="#f4c8a8"] ;
327 -> 328 ;
329 [label="x[14] <= -0.036\ngini = 0.059\nsamples = 45\nvalue = [[43, 2]\n[43, 2]\n[44, 1]\n[5, 40]\n[45, 0]\n[45, 0]\n[45, 0]]", fillcolor="#eca16b"] ;
328 -> 329 ;
330 [label="x[2] <= 1.351\ngini = 0.127\nsamples = 3\nvalue = [[1, 2]\n[3, 0]\n[2, 1]\n[3, 0]\n[3, 0]\n[3, 0]\n[3, 0]]", fillcolor="#f3c5a4"] ;
329 -> 330 ;
331 [label="gini = 0.0\nsamples = 2\nvalue = [[0, 2]\n[2, 0]\n[2, 0]\n[2, 0]\n[2, 0]\n[2, 0]\n[2, 0]]", fillcolor="#e58139"] ;
330 -> 331 ;
332 [label="gini = 0.0\nsamples = 1\nvalue = [[1, 0]\n[1, 0]\n[0, 1]\n[1, 0]\n[1, 0]\n[1, 0]\n[1, 0]]", fillcolor="#e58139"] ;
330 -> 332 ;
333 [label="x[22] <= 0.035\ngini = 0.026\nsamples = 42\nvalue = [[42, 0]\n[40, 2]\n[42, 0]\n[2, 40]\n[42, 0]\n[42, 0]\n[42, 0]]", fillcolor="#e88f4f"] ;
329 -> 333 ;
334 [label="gini = 0.0\nsamples = 40\nvalue = [[40, 0]\n[40, 0]\n[40, 0]\n[0, 40]\n[40, 0]\n[40, 0]\n[40, 0]]", fillcolor="#e58139"] ;
333 -> 334 ;
335 [label="gini = 0.0\nsamples = 2\nvalue = [[2, 0]\n[0, 2]\n[2, 0]\n[2, 0]\n[2, 0]\n[2, 0]\n[2, 0]]", fillcolor="#e58139"] ;
333 -> 335 ;
336 [label="x[6] <= -0.007\ngini = 0.184\nsamples = 11\nvalue = [[7, 4]\n[6, 5]\n[11, 0]\n[11, 0]\n[10, 1]\n[11, 0]\n[10, 1]]", fillcolor="#f9e4d4"] ;
328 -> 336 ;
337 [label="x[14] <= -0.054\ngini = 0.079\nsamples = 6\nvalue = [[5, 1]\n[1, 5]\n[6, 0]\n[6, 0]\n[6, 0]\n[6, 0]\n[6, 0]]", fillcolor="#eeac7c"] ;
336 -> 337 ;
338 [label="gini = 0.0\nsamples = 1\nvalue = [[0, 1]\n[1, 0]\n[1, 0]\n[1, 0]\n[1, 0]\n[1, 0]\n[1, 0]]", fillcolor="#e58139"] ;
337 -> 338 ;
339 [label="gini = 0.0\nsamples = 5\nvalue = [[5, 0]\n[0, 5]\n[5, 0]\n[5, 0]\n[5, 0]\n[5, 0]\n[5, 0]]", fillcolor="#e58139"] ;
337 -> 339 ;
340 [label="x[12] <= 0.003\ngini = 0.16\nsamples = 5\nvalue = [[2, 3]\n[5, 0]\n[5, 0]\n[5, 0]\n[4, 1]\n[5, 0]\n[4, 1]]", fillcolor="#f7d7c0"] ;
336 -> 340 ;
341 [label="gini = 0.0\nsamples = 3\nvalue = [[0, 3]\n[3, 0]\n[3, 0]\n[3, 0]\n[3, 0]\n[3, 0]\n[3, 0]]", fillcolor="#e58139"] ;
340 -> 341 ;
342 [label="gini = 0.143\nsamples = 2\nvalue = [[2, 0]\n[2, 0]\n[2, 0]\n[2, 0]\n[1, 1]\n[2, 0]\n[1, 1]]", fillcolor="#f5ceb2"] ;
340 -> 342 ;
343 [label="x[5] <= 0.535\ngini = 0.2\nsamples = 55\nvalue = [[31.0, 24.0]\n[39.0, 16.0]\n[50.0, 5.0]\n[51.0, 4.0]\n[49.0, 6.0]\n[55.0, 0.0]\n[55.0, 0.0]]", fillcolor="#fbece2"] ;
327 -> 343 ;
344 [label="x[9] <= 0.113\ngini = 0.146\nsamples = 23\nvalue = [[8, 15]\n[23, 0]\n[20, 3]\n[23, 0]\n[18, 5]\n[23, 0]\n[23, 0]]", fillcolor="#f5cfb4"] ;
343 -> 344 ;
345 [label="x[12] <= 0.003\ngini = 0.107\nsamples = 20\nvalue = [[5, 15]\n[20, 0]\n[20, 0]\n[20, 0]\n[15, 5]\n[20, 0]\n[20, 0]]", fillcolor="#f1bb93"] ;
344 -> 345 ;
346 [label="gini = 0.0\nsamples = 13\nvalue = [[0, 13]\n[13, 0]\n[13, 0]\n[13, 0]\n[13, 0]\n[13, 0]\n[13, 0]]", fillcolor="#e58139"] ;
345 -> 346 ;
347 [label="gini = 0.117\nsamples = 7\nvalue = [[5, 2]\n[7, 0]\n[7, 0]\n[7, 0]\n[2, 5]\n[7, 0]\n[7, 0]]", fillcolor="#f2c09b"] ;
345 -> 347 ;
348 [label="gini = 0.0\nsamples = 3\nvalue = [[3, 0]\n[3, 0]\n[0, 3]\n[3, 0]\n[3, 0]\n[3, 0]\n[3, 0]]", fillcolor="#e58139"] ;
344 -> 348 ;
349 [label="x[10] <= -0.019\ngini = 0.186\nsamples = 32\nvalue = [[23, 9]\n[16, 16]\n[30, 2]\n[28, 4]\n[31, 1]\n[32, 0]\n[32, 0]]", fillcolor="#fae5d6"] ;
343 -> 349 ;
350 [label="gini = 0.0\nsamples = 4\nvalue = [[0, 4]\n[4, 0]\n[4, 0]\n[4, 0]\n[4, 0]\n[4, 0]\n[4, 0]]", fillcolor="#e58139"] ;
349 -> 350 ;
351 [label="x[7] <= -0.092\ngini = 0.176\nsamples = 28\nvalue = [[23, 5]\n[12, 16]\n[26, 2]\n[24, 4]\n[27, 1]\n[28, 0]\n[28, 0]]", fillcolor="#f8dfcd"] ;
349 -> 351 ;
352 [label="gini = 0.143\nsamples = 4\nvalue = [[2, 2]\n[4, 0]\n[2, 2]\n[4, 0]\n[4, 0]\n[4, 0]\n[4, 0]]", fillcolor="#f5ceb2"] ;
351 -> 352 ;
353 [label="gini = 0.146\nsamples = 24\nvalue = [[21, 3]\n[8, 16]\n[24, 0]\n[20, 4]\n[23, 1]\n[24, 0]\n[24, 0]]", fillcolor="#f5cfb4"] ;
351 -> 353 ;
354 [label="x[5] <= 0.677\ngini = 0.198\nsamples = 225\nvalue = [[152, 73]\n[136, 89]\n[178, 47]\n[222, 3]\n[222, 3]\n[216, 9]\n[224, 1]]", fillcolor="#fbebe0"] ;
306 -> 354 ;
355 [label="x[2] <= 0.636\ngini = 0.201\nsamples = 106\nvalue = [[65, 41]\n[89, 17]\n[70, 36]\n[104, 2]\n[103, 3]\n[100, 6]\n[105, 1]]", fillcolor="#fbede3"] ;
354 -> 355 ;
356 [label="x[3] <= -0.346\ngini = 0.129\nsamples = 22\nvalue = [[21, 1]\n[21, 1]\n[6, 16]\n[20, 2]\n[20, 2]\n[22, 0]\n[22, 0]]", fillcolor="#f3c6a6"] ;
355 -> 356 ;
357 [label="x[17] <= 0.012\ngini = 0.179\nsamples = 4\nvalue = [[3, 1]\n[3, 1]\n[4, 0]\n[2, 2]\n[4, 0]\n[4, 0]\n[4, 0]]", fillcolor="#f9e1d0"] ;
356 -> 357 ;
358 [label="x[20] <= -0.017\ngini = 0.143\nsamples = 2\nvalue = [[1, 1]\n[1, 1]\n[2, 0]\n[2, 0]\n[2, 0]\n[2, 0]\n[2, 0]]", fillcolor="#f5ceb2"] ;
357 -> 358 ;
359 [label="gini = 0.0\nsamples = 1\nvalue = [[0, 1]\n[1, 0]\n[1, 0]\n[1, 0]\n[1, 0]\n[1, 0]\n[1, 0]]", fillcolor="#e58139"] ;
358 -> 359 ;
360 [label="gini = 0.0\nsamples = 1\nvalue = [[1, 0]\n[0, 1]\n[1, 0]\n[1, 0]\n[1, 0]\n[1, 0]\n[1, 0]]", fillcolor="#e58139"] ;
358 -> 360 ;
361 [label="gini = 0.0\nsamples = 2\nvalue = [[2, 0]\n[2, 0]\n[2, 0]\n[0, 2]\n[2, 0]\n[2, 0]\n[2, 0]]", fillcolor="#e58139"] ;
357 -> 361 ;
362 [label="x[21] <= -0.021\ngini = 0.056\nsamples = 18\nvalue = [[18, 0]\n[18, 0]\n[2, 16]\n[18, 0]\n[16, 2]\n[18, 0]\n[18, 0]]", fillcolor="#eb9f69"] ;
356 -> 362 ;
363 [label="gini = 0.0\nsamples = 1\nvalue = [[1, 0]\n[1, 0]\n[1, 0]\n[1, 0]\n[0, 1]\n[1, 0]\n[1, 0]]", fillcolor="#e58139"] ;
362 -> 363 ;
364 [label="x[4] <= -0.372\ngini = 0.032\nsamples = 17\nvalue = [[17, 0]\n[17, 0]\n[1, 16]\n[17, 0]\n[16, 1]\n[17, 0]\n[17, 0]]", fillcolor="#e99254"] ;
362 -> 364 ;
365 [label="gini = 0.0\nsamples = 1\nvalue = [[1, 0]\n[1, 0]\n[1, 0]\n[1, 0]\n[0, 1]\n[1, 0]\n[1, 0]]", fillcolor="#e58139"] ;
364 -> 365 ;
366 [label="gini = 0.0\nsamples = 16\nvalue = [[16, 0]\n[16, 0]\n[0, 16]\n[16, 0]\n[16, 0]\n[16, 0]\n[16, 0]]", fillcolor="#e58139"] ;
364 -> 366 ;
367 [label="x[13] <= 0.082\ngini = 0.193\nsamples = 84\nvalue = [[44, 40]\n[68, 16]\n[64, 20]\n[84, 0]\n[83, 1]\n[78, 6]\n[83, 1]]", fillcolor="#fae9dc"] ;
355 -> 367 ;
368 [label="x[7] <= 0.005\ngini = 0.142\nsamples = 57\nvalue = [[18, 39]\n[49, 8]\n[50, 7]\n[57, 0]\n[56, 1]\n[56, 1]\n[56, 1]]", fillcolor="#f5cdb1"] ;
367 -> 368 ;
369 [label="x[18] <= -0.02\ngini = 0.202\nsamples = 23\nvalue = [[15, 8]\n[15, 8]\n[18, 5]\n[23, 0]\n[22, 1]\n[23, 0]\n[22, 1]]", fillcolor="#fbede3"] ;
368 -> 369 ;
370 [label="gini = 0.183\nsamples = 18\nvalue = [[10, 8]\n[11, 7]\n[17, 1]\n[18, 0]\n[17, 1]\n[18, 0]\n[17, 1]]", fillcolor="#f9e3d4"] ;
369 -> 370 ;
371 [label="gini = 0.091\nsamples = 5\nvalue = [[5, 0]\n[4, 1]\n[1, 4]\n[5, 0]\n[5, 0]\n[5, 0]\n[5, 0]]", fillcolor="#efb286"] ;
369 -> 371 ;
372 [label="x[5] <= 0.442\ngini = 0.047\nsamples = 34\nvalue = [[3, 31]\n[34, 0]\n[32, 2]\n[34, 0]\n[34, 0]\n[33, 1]\n[34, 0]]", fillcolor="#ea9a61"] ;
368 -> 372 ;
373 [label="gini = 0.0\nsamples = 28\nvalue = [[0, 28]\n[28, 0]\n[28, 0]\n[28, 0]\n[28, 0]\n[28, 0]\n[28, 0]]", fillcolor="#e58139"] ;
372 -> 373 ;
374 [label="gini = 0.175\nsamples = 6\nvalue = [[3, 3]\n[6, 0]\n[4, 2]\n[6, 0]\n[6, 0]\n[5, 1]\n[6, 0]]", fillcolor="#f8dfcc"] ;
372 -> 374 ;
375 [label="x[8] <= -0.428\ngini = 0.184\nsamples = 27\nvalue = [[26, 1]\n[19, 8]\n[14, 13]\n[27, 0]\n[27, 0]\n[22, 5]\n[27, 0]]", fillcolor="#f9e4d4"] ;
367 -> 375 ;
376 [label="gini = 0.0\nsamples = 5\nvalue = [[5, 0]\n[5, 0]\n[5, 0]\n[5, 0]\n[5, 0]\n[0, 5]\n[5, 0]]", fillcolor="#e58139"] ;
375 -> 376 ;
377 [label="x[14] <= -0.081\ngini = 0.148\nsamples = 22\nvalue = [[21, 1]\n[14, 8]\n[9, 13]\n[22, 0]\n[22, 0]\n[22, 0]\n[22, 0]]", fillcolor="#f5d0b6"] ;
375 -> 377 ;
378 [label="gini = 0.0\nsamples = 8\nvalue = [[8, 0]\n[8, 0]\n[0, 8]\n[8, 0]\n[8, 0]\n[8, 0]\n[8, 0]]", fillcolor="#e58139"] ;
377 -> 378 ;
379 [label="gini = 0.155\nsamples = 14\nvalue = [[13, 1]\n[6, 8]\n[9, 5]\n[14, 0]\n[14, 0]\n[14, 0]\n[14, 0]]", fillcolor="#f6d4bb"] ;
377 -> 379 ;
380 [label="x[15] <= 0.009\ngini = 0.158\nsamples = 119\nvalue = [[87, 32]\n[47, 72]\n[108, 11]\n[118, 1]\n[119, 0]\n[116, 3]\n[119, 0]]", fillcolor="#f6d6be"] ;
354 -> 380 ;
381 [label="x[10] <= 0.063\ngini = 0.211\nsamples = 21\nvalue = [[17, 4]\n[16, 5]\n[13, 8]\n[20, 1]\n[21, 0]\n[18, 3]\n[21, 0]]", fillcolor="#fcf2eb"] ;
380 -> 381 ;
382 [label="x[21] <= 0.003\ngini = 0.192\nsamples = 18\nvalue = [[14, 4]\n[13, 5]\n[10, 8]\n[17, 1]\n[18, 0]\n[18, 0]\n[18, 0]]", fillcolor="#fae8db"] ;
381 -> 382 ;
383 [label="x[16] <= 0.029\ngini = 0.176\nsamples = 9\nvalue = [[8, 1]\n[4, 5]\n[7, 2]\n[8, 1]\n[9, 0]\n[9, 0]\n[9, 0]]", fillcolor="#f9e0ce"] ;
382 -> 383 ;
384 [label="gini = 0.128\nsamples = 7\nvalue = [[6, 1]\n[2, 5]\n[7, 0]\n[6, 1]\n[7, 0]\n[7, 0]\n[7, 0]]", fillcolor="#f3c6a5"] ;
383 -> 384 ;
385 [label="gini = 0.0\nsamples = 2\nvalue = [[2, 0]\n[2, 0]\n[0, 2]\n[2, 0]\n[2, 0]\n[2, 0]\n[2, 0]]", fillcolor="#e58139"] ;
383 -> 385 ;
386 [label="x[16] <= 0.018\ngini = 0.127\nsamples = 9\nvalue = [[6, 3]\n[9, 0]\n[3, 6]\n[9, 0]\n[9, 0]\n[9, 0]\n[9, 0]]", fillcolor="#f3c5a4"] ;
382 -> 386 ;
387 [label="gini = 0.0\nsamples = 5\nvalue = [[5, 0]\n[5, 0]\n[0, 5]\n[5, 0]\n[5, 0]\n[5, 0]\n[5, 0]]", fillcolor="#e58139"] ;
386 -> 387 ;
388 [label="gini = 0.107\nsamples = 4\nvalue = [[1, 3]\n[4, 0]\n[3, 1]\n[4, 0]\n[4, 0]\n[4, 0]\n[4, 0]]", fillcolor="#f1bb93"] ;
386 -> 388 ;
389 [label="gini = 0.0\nsamples = 3\nvalue = [[3, 0]\n[3, 0]\n[3, 0]\n[3, 0]\n[3, 0]\n[0, 3]\n[3, 0]]", fillcolor="#e58139"] ;
381 -> 389 ;
390 [label="x[22] <= -0.007\ngini = 0.129\nsamples = 98\nvalue = [[70, 28]\n[31, 67]\n[95, 3]\n[98, 0]\n[98, 0]\n[98, 0]\n[98, 0]]", fillcolor="#f3c6a5"] ;
380 -> 390 ;
391 [label="x[17] <= 0.108\ngini = 0.153\nsamples = 20\nvalue = [[9, 11]\n[12, 8]\n[19, 1]\n[20, 0]\n[20, 0]\n[20, 0]\n[20, 0]]", fillcolor="#f6d3ba"] ;
390 -> 391 ;
392 [label="x[9] <= -0.021\ngini = 0.128\nsamples = 7\nvalue = [[6, 1]\n[2, 5]\n[6, 1]\n[7, 0]\n[7, 0]\n[7, 0]\n[7, 0]]", fillcolor="#f3c6a5"] ;
391 -> 392 ;
393 [label="gini = 0.0\nsamples = 1\nvalue = [[0, 1]\n[1, 0]\n[1, 0]\n[1, 0]\n[1, 0]\n[1, 0]\n[1, 0]]", fillcolor="#e58139"] ;
392 -> 393 ;
394 [label="gini = 0.079\nsamples = 6\nvalue = [[6, 0]\n[1, 5]\n[5, 1]\n[6, 0]\n[6, 0]\n[6, 0]\n[6, 0]]", fillcolor="#eeac7c"] ;
392 -> 394 ;
395 [label="x[19] <= -0.036\ngini = 0.101\nsamples = 13\nvalue = [[3, 10]\n[10, 3]\n[13, 0]\n[13, 0]\n[13, 0]\n[13, 0]\n[13, 0]]", fillcolor="#f0b78f"] ;
391 -> 395 ;
396 [label="gini = 0.107\nsamples = 4\nvalue = [[3, 1]\n[1, 3]\n[4, 0]\n[4, 0]\n[4, 0]\n[4, 0]\n[4, 0]]", fillcolor="#f1bb93"] ;
395 -> 396 ;
397 [label="gini = 0.0\nsamples = 9\nvalue = [[0, 9]\n[9, 0]\n[9, 0]\n[9, 0]\n[9, 0]\n[9, 0]\n[9, 0]]", fillcolor="#e58139"] ;
395 -> 397 ;
398 [label="x[13] <= -0.037\ngini = 0.108\nsamples = 78\nvalue = [[61, 17]\n[19, 59]\n[76, 2]\n[78, 0]\n[78, 0]\n[78, 0]\n[78, 0]]", fillcolor="#f1bb95"] ;
390 -> 398 ;
399 [label="gini = 0.0\nsamples = 2\nvalue = [[2, 0]\n[2, 0]\n[0, 2]\n[2, 0]\n[2, 0]\n[2, 0]\n[2, 0]]", fillcolor="#e58139"] ;
398 -> 399 ;
400 [label="x[10] <= 0.026\ngini = 0.099\nsamples = 76\nvalue = [[59, 17]\n[17, 59]\n[76, 0]\n[76, 0]\n[76, 0]\n[76, 0]\n[76, 0]]", fillcolor="#f0b68d"] ;
398 -> 400 ;
401 [label="gini = 0.092\nsamples = 74\nvalue = [[59, 15]\n[15, 59]\n[74, 0]\n[74, 0]\n[74, 0]\n[74, 0]\n[74, 0]]", fillcolor="#efb387"] ;
400 -> 401 ;
402 [label="gini = 0.0\nsamples = 2\nvalue = [[0, 2]\n[2, 0]\n[2, 0]\n[2, 0]\n[2, 0]\n[2, 0]\n[2, 0]]", fillcolor="#e58139"] ;
400 -> 402 ;
403 [label="x[13] <= 0.003\ngini = 0.221\nsamples = 948\nvalue = [[865.0, 83.0]\n[839.0, 109.0]\n[755.0, 193.0]\n[775.0, 173.0]\n[609.0, 339.0]\n[905.0, 43.0]\n[940.0, 8.0]]", fillcolor="#fef8f4"] ;
231 -> 403 ;
404 [label="x[14] <= -0.018\ngini = 0.175\nsamples = 582\nvalue = [[545, 37]\n[551, 31]\n[449, 133]\n[565, 17]\n[251, 331]\n[554, 28]\n[577, 5]]", fillcolor="#f8dfcd"] ;
403 -> 404 ;
405 [label="x[3] <= -0.161\ngini = 0.1\nsamples = 230\nvalue = [[224, 6]\n[227, 3]\n[211, 19]\n[229, 1]\n[46, 184]\n[217, 13]\n[226, 4]]", fillcolor="#f0b78d"] ;
404 -> 405 ;
406 [label="x[9] <= -0.02\ngini = 0.082\nsamples = 219\nvalue = [[217, 2]\n[216, 3]\n[207, 12]\n[218, 1]\n[35, 184]\n[206, 13]\n[215, 4]]", fillcolor="#eead7e"] ;
405 -> 406 ;
407 [label="x[0] <= -0.959\ngini = 0.041\nsamples = 171\nvalue = [[170, 1]\n[169, 2]\n[167, 4]\n[170, 1]\n[13, 158]\n[168, 3]\n[169, 2]]", fillcolor="#ea975c"] ;
406 -> 407 ;
408 [label="x[18] <= 0.0\ngini = 0.03\nsamples = 167\nvalue = [[166, 1]\n[167, 0]\n[163, 4]\n[166, 1]\n[9, 158]\n[164, 3]\n[167, 0]]", fillcolor="#e89152"] ;
407 -> 408 ;
409 [label="gini = 0.0\nsamples = 1\nvalue = [[1, 0]\n[1, 0]\n[1, 0]\n[1, 0]\n[1, 0]\n[0, 1]\n[1, 0]]", fillcolor="#e58139"] ;
408 -> 409 ;
410 [label="x[10] <= 0.193\ngini = 0.027\nsamples = 166\nvalue = [[165, 1]\n[166, 0]\n[162, 4]\n[165, 1]\n[8, 158]\n[164, 2]\n[166, 0]]", fillcolor="#e88f4f"] ;
408 -> 410 ;
411 [label="x[6] <= 0.171\ngini = 0.024\nsamples = 165\nvalue = [[164, 1]\n[165, 0]\n[162, 3]\n[164, 1]\n[7, 158]\n[163, 2]\n[165, 0]]", fillcolor="#e88e4d"] ;
410 -> 411 ;
412 [label="gini = 0.017\nsamples = 161\nvalue = [[161.0, 0.0]\n[161.0, 0.0]\n[158.0, 3.0]\n[160.0, 1.0]\n[5.0, 156.0]\n[160.0, 1.0]\n[161.0, 0.0]]", fillcolor="#e78a48"] ;
411 -> 412 ;
413 [label="gini = 0.179\nsamples = 4\nvalue = [[3, 1]\n[4, 0]\n[4, 0]\n[4, 0]\n[2, 2]\n[3, 1]\n[4, 0]]", fillcolor="#f9e1d0"] ;
411 -> 413 ;
414 [label="gini = 0.0\nsamples = 1\nvalue = [[1, 0]\n[1, 0]\n[0, 1]\n[1, 0]\n[1, 0]\n[1, 0]\n[1, 0]]", fillcolor="#e58139"] ;
410 -> 414 ;
415 [label="x[17] <= -0.017\ngini = 0.143\nsamples = 4\nvalue = [[4, 0]\n[2, 2]\n[4, 0]\n[4, 0]\n[4, 0]\n[4, 0]\n[2, 2]]", fillcolor="#f5ceb2"] ;
407 -> 415 ;
416 [label="gini = 0.0\nsamples = 2\nvalue = [[2, 0]\n[2, 0]\n[2, 0]\n[2, 0]\n[2, 0]\n[2, 0]\n[0, 2]]", fillcolor="#e58139"] ;
415 -> 416 ;
417 [label="gini = 0.0\nsamples = 2\nvalue = [[2, 0]\n[0, 2]\n[2, 0]\n[2, 0]\n[2, 0]\n[2, 0]\n[2, 0]]", fillcolor="#e58139"] ;
415 -> 417 ;
418 [label="x[4] <= 0.644\ngini = 0.181\nsamples = 48\nvalue = [[47, 1]\n[47, 1]\n[40, 8]\n[48, 0]\n[22, 26]\n[38, 10]\n[46, 2]]", fillcolor="#f9e2d2"] ;
406 -> 418 ;
419 [label="x[13] <= -0.003\ngini = 0.176\nsamples = 9\nvalue = [[8, 1]\n[8, 1]\n[4, 5]\n[9, 0]\n[9, 0]\n[9, 0]\n[7, 2]]", fillcolor="#f9e0ce"] ;
418 -> 419 ;
420 [label="gini = 0.0\nsamples = 5\nvalue = [[5, 0]\n[5, 0]\n[0, 5]\n[5, 0]\n[5, 0]\n[5, 0]\n[5, 0]]", fillcolor="#e58139"] ;
419 -> 420 ;
421 [label="x[20] <= -0.015\ngini = 0.179\nsamples = 4\nvalue = [[3, 1]\n[3, 1]\n[4, 0]\n[4, 0]\n[4, 0]\n[4, 0]\n[2, 2]]", fillcolor="#f9e1d0"] ;
419 -> 421 ;
422 [label="gini = 0.0\nsamples = 2\nvalue = [[2, 0]\n[2, 0]\n[2, 0]\n[2, 0]\n[2, 0]\n[2, 0]\n[0, 2]]", fillcolor="#e58139"] ;
421 -> 422 ;
423 [label="x[0] <= -1.065\ngini = 0.143\nsamples = 2\nvalue = [[1, 1]\n[1, 1]\n[2, 0]\n[2, 0]\n[2, 0]\n[2, 0]\n[2, 0]]", fillcolor="#f5ceb2"] ;
421 -> 423 ;
424 [label="gini = 0.0\nsamples = 1\nvalue = [[0, 1]\n[1, 0]\n[1, 0]\n[1, 0]\n[1, 0]\n[1, 0]\n[1, 0]]", fillcolor="#e58139"] ;
423 -> 424 ;
425 [label="gini = 0.0\nsamples = 1\nvalue = [[1, 0]\n[0, 1]\n[1, 0]\n[1, 0]\n[1, 0]\n[1, 0]\n[1, 0]]", fillcolor="#e58139"] ;
423 -> 425 ;
426 [label="x[14] <= -0.039\ngini = 0.138\nsamples = 39\nvalue = [[39, 0]\n[39, 0]\n[36, 3]\n[39, 0]\n[13, 26]\n[29, 10]\n[39, 0]]", fillcolor="#f4cbae"] ;
418 -> 426 ;
427 [label="gini = 0.0\nsamples = 12\nvalue = [[12, 0]\n[12, 0]\n[12, 0]\n[12, 0]\n[0, 12]\n[12, 0]\n[12, 0]]", fillcolor="#e58139"] ;
426 -> 427 ;
428 [label="x[9] <= 0.303\ngini = 0.166\nsamples = 27\nvalue = [[27, 0]\n[27, 0]\n[24, 3]\n[27, 0]\n[13, 14]\n[17, 10]\n[27, 0]]", fillcolor="#f7dac5"] ;
426 -> 428 ;
429 [label="x[7] <= 0.191\ngini = 0.14\nsamples = 23\nvalue = [[23.0, 0.0]\n[23.0, 0.0]\n[23.0, 0.0]\n[23.0, 0.0]\n[10.0, 13.0]\n[13.0, 10.0]\n[23.0, 0.0]]", fillcolor="#f5ccaf"] ;
428 -> 429 ;
430 [label="gini = 0.119\nsamples = 17\nvalue = [[17, 0]\n[17, 0]\n[17, 0]\n[17, 0]\n[5, 12]\n[12, 5]\n[17, 0]]", fillcolor="#f2c19d"] ;
429 -> 430 ;
431 [label="gini = 0.079\nsamples = 6\nvalue = [[6, 0]\n[6, 0]\n[6, 0]\n[6, 0]\n[5, 1]\n[1, 5]\n[6, 0]]", fillcolor="#eeac7c"] ;
429 -> 431 ;
432 [label="x[1] <= 5.332\ngini = 0.107\nsamples = 4\nvalue = [[4, 0]\n[4, 0]\n[1, 3]\n[4, 0]\n[3, 1]\n[4, 0]\n[4, 0]]", fillcolor="#f1bb93"] ;
428 -> 432 ;
433 [label="gini = 0.0\nsamples = 2\nvalue = [[2, 0]\n[2, 0]\n[0, 2]\n[2, 0]\n[2, 0]\n[2, 0]\n[2, 0]]", fillcolor="#e58139"] ;
432 -> 433 ;
434 [label="gini = 0.143\nsamples = 2\nvalue = [[2, 0]\n[2, 0]\n[1, 1]\n[2, 0]\n[1, 1]\n[2, 0]\n[2, 0]]", fillcolor="#f5ceb2"] ;
432 -> 434 ;
435 [label="x[15] <= 0.088\ngini = 0.132\nsamples = 11\nvalue = [[7, 4]\n[11, 0]\n[4, 7]\n[11, 0]\n[11, 0]\n[11, 0]\n[11, 0]]", fillcolor="#f4c8a9"] ;
405 -> 435 ;
436 [label="gini = 0.0\nsamples = 6\nvalue = [[6, 0]\n[6, 0]\n[0, 6]\n[6, 0]\n[6, 0]\n[6, 0]\n[6, 0]]", fillcolor="#e58139"] ;
435 -> 436 ;
437 [label="x[12] <= 0.255\ngini = 0.091\nsamples = 5\nvalue = [[1, 4]\n[5, 0]\n[4, 1]\n[5, 0]\n[5, 0]\n[5, 0]\n[5, 0]]", fillcolor="#efb286"] ;
435 -> 437 ;
438 [label="gini = 0.0\nsamples = 3\nvalue = [[0, 3]\n[3, 0]\n[3, 0]\n[3, 0]\n[3, 0]\n[3, 0]\n[3, 0]]", fillcolor="#e58139"] ;
437 -> 438 ;
439 [label="x[16] <= -0.058\ngini = 0.143\nsamples = 2\nvalue = [[1, 1]\n[2, 0]\n[1, 1]\n[2, 0]\n[2, 0]\n[2, 0]\n[2, 0]]", fillcolor="#f5ceb2"] ;
437 -> 439 ;
440 [label="gini = 0.0\nsamples = 1\nvalue = [[0, 1]\n[1, 0]\n[1, 0]\n[1, 0]\n[1, 0]\n[1, 0]\n[1, 0]]", fillcolor="#e58139"] ;
439 -> 440 ;
441 [label="gini = 0.0\nsamples = 1\nvalue = [[1, 0]\n[1, 0]\n[0, 1]\n[1, 0]\n[1, 0]\n[1, 0]\n[1, 0]]", fillcolor="#e58139"] ;
439 -> 441 ;
442 [label="x[4] <= 0.428\ngini = 0.201\nsamples = 352\nvalue = [[321.0, 31.0]\n[324.0, 28.0]\n[238.0, 114.0]\n[336.0, 16.0]\n[205.0, 147.0]\n[337.0, 15.0]\n[351.0, 1.0]]", fillcolor="#fbede2"] ;
404 -> 442 ;
443 [label="x[17] <= 0.005\ngini = 0.212\nsamples = 125\nvalue = [[97, 28]\n[112, 13]\n[74, 51]\n[109, 16]\n[110, 15]\n[124, 1]\n[124, 1]]", fillcolor="#fcf3ec"] ;
442 -> 443 ;
444 [label="x[10] <= -0.01\ngini = 0.191\nsamples = 89\nvalue = [[79.0, 10.0]\n[80.0, 9.0]\n[43.0, 46.0]\n[73.0, 16.0]\n[81.0, 8.0]\n[89.0, 0.0]\n[89.0, 0.0]]", fillcolor="#fae8da"] ;
443 -> 444 ;
445 [label="x[19] <= -0.001\ngini = 0.196\nsamples = 34\nvalue = [[31, 3]\n[27, 7]\n[27, 7]\n[18, 16]\n[33, 1]\n[34, 0]\n[34, 0]]", fillcolor="#fbeade"] ;
444 -> 445 ;
446 [label="x[3] <= -0.342\ngini = 0.144\nsamples = 25\nvalue = [[23.0, 2.0]\n[25.0, 0.0]\n[18.0, 7.0]\n[9.0, 16.0]\n[25.0, 0.0]\n[25.0, 0.0]\n[25.0, 0.0]]", fillcolor="#f5cfb3"] ;
445 -> 446 ;
447 [label="x[17] <= 0.002\ngini = 0.076\nsamples = 19\nvalue = [[19, 0]\n[19, 0]\n[16, 3]\n[3, 16]\n[19, 0]\n[19, 0]\n[19, 0]]", fillcolor="#edaa79"] ;
446 -> 447 ;
448 [label="gini = 0.0\nsamples = 14\nvalue = [[14, 0]\n[14, 0]\n[14, 0]\n[0, 14]\n[14, 0]\n[14, 0]\n[14, 0]]", fillcolor="#e58139"] ;
447 -> 448 ;
449 [label="gini = 0.137\nsamples = 5\nvalue = [[5, 0]\n[5, 0]\n[2, 3]\n[3, 2]\n[5, 0]\n[5, 0]\n[5, 0]]", fillcolor="#f4cbad"] ;
447 -> 449 ;
450 [label="x[6] <= 0.194\ngini = 0.127\nsamples = 6\nvalue = [[4, 2]\n[6, 0]\n[2, 4]\n[6, 0]\n[6, 0]\n[6, 0]\n[6, 0]]", fillcolor="#f3c5a4"] ;
446 -> 450 ;
451 [label="gini = 0.0\nsamples = 4\nvalue = [[4, 0]\n[4, 0]\n[0, 4]\n[4, 0]\n[4, 0]\n[4, 0]\n[4, 0]]", fillcolor="#e58139"] ;
450 -> 451 ;
452 [label="gini = 0.0\nsamples = 2\nvalue = [[0, 2]\n[2, 0]\n[2, 0]\n[2, 0]\n[2, 0]\n[2, 0]\n[2, 0]]", fillcolor="#e58139"] ;
450 -> 452 ;
453 [label="x[6] <= 0.196\ngini = 0.106\nsamples = 9\nvalue = [[8, 1]\n[2, 7]\n[9, 0]\n[9, 0]\n[8, 1]\n[9, 0]\n[9, 0]]", fillcolor="#f1ba92"] ;
445 -> 453 ;
454 [label="gini = 0.0\nsamples = 7\nvalue = [[7, 0]\n[0, 7]\n[7, 0]\n[7, 0]\n[7, 0]\n[7, 0]\n[7, 0]]", fillcolor="#e58139"] ;
453 -> 454 ;
455 [label="x[5] <= -0.84\ngini = 0.143\nsamples = 2\nvalue = [[1, 1]\n[2, 0]\n[2, 0]\n[2, 0]\n[1, 1]\n[2, 0]\n[2, 0]]", fillcolor="#f5ceb2"] ;
453 -> 455 ;
456 [label="gini = 0.0\nsamples = 1\nvalue = [[1, 0]\n[1, 0]\n[1, 0]\n[1, 0]\n[0, 1]\n[1, 0]\n[1, 0]]", fillcolor="#e58139"] ;
455 -> 456 ;
457 [label="gini = 0.0\nsamples = 1\nvalue = [[0, 1]\n[1, 0]\n[1, 0]\n[1, 0]\n[1, 0]\n[1, 0]\n[1, 0]]", fillcolor="#e58139"] ;
455 -> 457 ;
458 [label="x[18] <= 0.005\ngini = 0.132\nsamples = 55\nvalue = [[48.0, 7.0]\n[53.0, 2.0]\n[16.0, 39.0]\n[55.0, 0.0]\n[48.0, 7.0]\n[55.0, 0.0]\n[55.0, 0.0]]", fillcolor="#f4c8a9"] ;
444 -> 458 ;
459 [label="x[0] <= -0.066\ngini = 0.098\nsamples = 49\nvalue = [[42.0, 7.0]\n[47.0, 2.0]\n[10.0, 39.0]\n[49.0, 0.0]\n[48.0, 1.0]\n[49.0, 0.0]\n[49.0, 0.0]]", fillcolor="#f0b68c"] ;
458 -> 459 ;
460 [label="x[8] <= -0.018\ngini = 0.05\nsamples = 43\nvalue = [[41, 2]\n[42, 1]\n[4, 39]\n[43, 0]\n[42, 1]\n[43, 0]\n[43, 0]]", fillcolor="#eb9c63"] ;
459 -> 460 ;
461 [label="gini = 0.214\nsamples = 4\nvalue = [[3, 1]\n[3, 1]\n[3, 1]\n[4, 0]\n[3, 1]\n[4, 0]\n[4, 0]]", fillcolor="#fdf4ee"] ;
460 -> 461 ;
462 [label="gini = 0.014\nsamples = 39\nvalue = [[38, 1]\n[39, 0]\n[1, 38]\n[39, 0]\n[39, 0]\n[39, 0]\n[39, 0]]", fillcolor="#e78945"] ;
460 -> 462 ;
463 [label="x[20] <= 0.008\ngini = 0.079\nsamples = 6\nvalue = [[1, 5]\n[5, 1]\n[6, 0]\n[6, 0]\n[6, 0]\n[6, 0]\n[6, 0]]", fillcolor="#eeac7c"] ;
459 -> 463 ;
464 [label="gini = 0.0\nsamples = 5\nvalue = [[0, 5]\n[5, 0]\n[5, 0]\n[5, 0]\n[5, 0]\n[5, 0]\n[5, 0]]", fillcolor="#e58139"] ;
463 -> 464 ;
465 [label="gini = 0.0\nsamples = 1\nvalue = [[1, 0]\n[0, 1]\n[1, 0]\n[1, 0]\n[1, 0]\n[1, 0]\n[1, 0]]", fillcolor="#e58139"] ;
463 -> 465 ;
466 [label="gini = 0.0\nsamples = 6\nvalue = [[6, 0]\n[6, 0]\n[6, 0]\n[6, 0]\n[0, 6]\n[6, 0]\n[6, 0]]", fillcolor="#e58139"] ;
458 -> 466 ;
467 [label="x[13] <= -0.005\ngini = 0.194\nsamples = 36\nvalue = [[18, 18]\n[32, 4]\n[31, 5]\n[36, 0]\n[29, 7]\n[35, 1]\n[35, 1]]", fillcolor="#fae9dd"] ;
443 -> 467 ;
468 [label="x[21] <= 0.006\ngini = 0.221\nsamples = 25\nvalue = [[18.0, 7.0]\n[21.0, 4.0]\n[20.0, 5.0]\n[25.0, 0.0]\n[18.0, 7.0]\n[24.0, 1.0]\n[24.0, 1.0]]", fillcolor="#fef8f4"] ;
467 -> 468 ;
469 [label="x[14] <= -0.014\ngini = 0.205\nsamples = 21\nvalue = [[14, 7]\n[21, 0]\n[16, 5]\n[21, 0]\n[14, 7]\n[20, 1]\n[20, 1]]", fillcolor="#fcefe6"] ;
468 -> 469 ;
470 [label="x[3] <= -0.324\ngini = 0.137\nsamples = 10\nvalue = [[10, 0]\n[10, 0]\n[6, 4]\n[10, 0]\n[4, 6]\n[10, 0]\n[10, 0]]", fillcolor="#f4cbad"] ;
469 -> 470 ;
471 [label="gini = 0.0\nsamples = 6\nvalue = [[6, 0]\n[6, 0]\n[6, 0]\n[6, 0]\n[0, 6]\n[6, 0]\n[6, 0]]", fillcolor="#e58139"] ;
470 -> 471 ;
472 [label="gini = 0.0\nsamples = 4\nvalue = [[4, 0]\n[4, 0]\n[0, 4]\n[4, 0]\n[4, 0]\n[4, 0]\n[4, 0]]", fillcolor="#e58139"] ;
470 -> 472 ;
473 [label="x[18] <= 0.003\ngini = 0.161\nsamples = 11\nvalue = [[4, 7]\n[11, 0]\n[10, 1]\n[11, 0]\n[10, 1]\n[10, 1]\n[10, 1]]", fillcolor="#f7d7c0"] ;
469 -> 473 ;
474 [label="gini = 0.062\nsamples = 8\nvalue = [[1, 7]\n[8, 0]\n[8, 0]\n[8, 0]\n[7, 1]\n[8, 0]\n[8, 0]]", fillcolor="#eca36e"] ;
473 -> 474 ;
475 [label="gini = 0.19\nsamples = 3\nvalue = [[3, 0]\n[3, 0]\n[2, 1]\n[3, 0]\n[3, 0]\n[2, 1]\n[2, 1]]", fillcolor="#fae7da"] ;
473 -> 475 ;
476 [label="gini = 0.0\nsamples = 4\nvalue = [[4, 0]\n[0, 4]\n[4, 0]\n[4, 0]\n[4, 0]\n[4, 0]\n[4, 0]]", fillcolor="#e58139"] ;
468 -> 476 ;
477 [label="gini = 0.0\nsamples = 11\nvalue = [[0, 11]\n[11, 0]\n[11, 0]\n[11, 0]\n[11, 0]\n[11, 0]\n[11, 0]]", fillcolor="#e58139"] ;
467 -> 477 ;
478 [label="x[10] <= -0.015\ngini = 0.165\nsamples = 227\nvalue = [[224, 3]\n[212, 15]\n[164, 63]\n[227, 0]\n[95, 132]\n[213, 14]\n[227, 0]]", fillcolor="#f7d9c4"] ;
442 -> 478 ;
479 [label="x[3] <= -0.337\ngini = 0.169\nsamples = 127\nvalue = [[127, 0]\n[113, 14]\n[67, 60]\n[127, 0]\n[74, 53]\n[127, 0]\n[127, 0]]", fillcolor="#f8dcc7"] ;
478 -> 479 ;
480 [label="x[16] <= -0.003\ngini = 0.164\nsamples = 106\nvalue = [[106, 0]\n[93, 13]\n[47, 59]\n[106, 0]\n[72, 34]\n[106, 0]\n[106, 0]]", fillcolor="#f7d9c3"] ;
479 -> 480 ;
481 [label="x[9] <= -0.054\ngini = 0.11\nsamples = 56\nvalue = [[56, 0]\n[43, 13]\n[14, 42]\n[56, 0]\n[55, 1]\n[56, 0]\n[56, 0]]", fillcolor="#f1bc95"] ;
480 -> 481 ;
482 [label="x[3] <= -0.337\ngini = 0.132\nsamples = 33\nvalue = [[33, 0]\n[21, 12]\n[12, 21]\n[33, 0]\n[33, 0]\n[33, 0]\n[33, 0]]", fillcolor="#f4c8a9"] ;
481 -> 482 ;
483 [label="gini = 0.047\nsamples = 11\nvalue = [[11, 0]\n[1, 10]\n[10, 1]\n[11, 0]\n[11, 0]\n[11, 0]\n[11, 0]]", fillcolor="#ea9a61"] ;
482 -> 483 ;
484 [label="gini = 0.047\nsamples = 22\nvalue = [[22, 0]\n[20, 2]\n[2, 20]\n[22, 0]\n[22, 0]\n[22, 0]\n[22, 0]]", fillcolor="#ea9a61"] ;
482 -> 484 ;
485 [label="x[10] <= -0.016\ngini = 0.046\nsamples = 23\nvalue = [[23, 0]\n[22, 1]\n[2, 21]\n[23, 0]\n[22, 1]\n[23, 0]\n[23, 0]]", fillcolor="#ea9a60"] ;
481 -> 485 ;
486 [label="gini = 0.025\nsamples = 22\nvalue = [[22, 0]\n[22, 0]\n[1, 21]\n[22, 0]\n[21, 1]\n[22, 0]\n[22, 0]]", fillcolor="#e88e4e"] ;
485 -> 486 ;
487 [label="gini = 0.0\nsamples = 1\nvalue = [[1, 0]\n[0, 1]\n[1, 0]\n[1, 0]\n[1, 0]\n[1, 0]\n[1, 0]]", fillcolor="#e58139"] ;
485 -> 487 ;
488 [label="x[12] <= 0.033\ngini = 0.128\nsamples = 50\nvalue = [[50, 0]\n[50, 0]\n[33, 17]\n[50, 0]\n[17, 33]\n[50, 0]\n[50, 0]]", fillcolor="#f3c6a5"] ;
480 -> 488 ;
489 [label="x[3] <= -0.338\ngini = 0.047\nsamples = 11\nvalue = [[11, 0]\n[11, 0]\n[1, 10]\n[11, 0]\n[10, 1]\n[11, 0]\n[11, 0]]", fillcolor="#ea9a61"] ;
488 -> 489 ;
490 [label="gini = 0.127\nsamples = 3\nvalue = [[3, 0]\n[3, 0]\n[1, 2]\n[3, 0]\n[2, 1]\n[3, 0]\n[3, 0]]", fillcolor="#f3c5a4"] ;
489 -> 490 ;
491 [label="gini = 0.0\nsamples = 8\nvalue = [[8, 0]\n[8, 0]\n[0, 8]\n[8, 0]\n[8, 0]\n[8, 0]\n[8, 0]]", fillcolor="#e58139"] ;
489 -> 491 ;
492 [label="x[3] <= -0.338\ngini = 0.084\nsamples = 39\nvalue = [[39, 0]\n[39, 0]\n[32, 7]\n[39, 0]\n[7, 32]\n[39, 0]\n[39, 0]]", fillcolor="#eeae80"] ;
488 -> 492 ;
493 [label="gini = 0.059\nsamples = 34\nvalue = [[34, 0]\n[34, 0]\n[30, 4]\n[34, 0]\n[4, 30]\n[34, 0]\n[34, 0]]", fillcolor="#eca16b"] ;
492 -> 493 ;
494 [label="gini = 0.137\nsamples = 5\nvalue = [[5, 0]\n[5, 0]\n[2, 3]\n[5, 0]\n[3, 2]\n[5, 0]\n[5, 0]]", fillcolor="#f4cbad"] ;
492 -> 494 ;
495 [label="x[3] <= -0.337\ngini = 0.051\nsamples = 21\nvalue = [[21, 0]\n[20, 1]\n[20, 1]\n[21, 0]\n[2, 19]\n[21, 0]\n[21, 0]]", fillcolor="#eb9c64"] ;
479 -> 495 ;
496 [label="x[1] <= -0.294\ngini = 0.143\nsamples = 6\nvalue = [[6, 0]\n[5, 1]\n[5, 1]\n[6, 0]\n[2, 4]\n[6, 0]\n[6, 0]]", fillcolor="#f5ceb2"] ;
495 -> 496 ;
497 [label="gini = 0.0\nsamples = 1\nvalue = [[1, 0]\n[1, 0]\n[0, 1]\n[1, 0]\n[1, 0]\n[1, 0]\n[1, 0]]", fillcolor="#e58139"] ;
496 -> 497 ;
498 [label="x[0] <= -1.935\ngini = 0.091\nsamples = 5\nvalue = [[5, 0]\n[4, 1]\n[5, 0]\n[5, 0]\n[1, 4]\n[5, 0]\n[5, 0]]", fillcolor="#efb286"] ;
496 -> 498 ;
499 [label="gini = 0.0\nsamples = 3\nvalue = [[3, 0]\n[3, 0]\n[3, 0]\n[3, 0]\n[0, 3]\n[3, 0]\n[3, 0]]", fillcolor="#e58139"] ;
498 -> 499 ;
500 [label="gini = 0.143\nsamples = 2\nvalue = [[2, 0]\n[1, 1]\n[2, 0]\n[2, 0]\n[1, 1]\n[2, 0]\n[2, 0]]", fillcolor="#f5ceb2"] ;
498 -> 500 ;
501 [label="gini = 0.0\nsamples = 15\nvalue = [[15, 0]\n[15, 0]\n[15, 0]\n[15, 0]\n[0, 15]\n[15, 0]\n[15, 0]]", fillcolor="#e58139"] ;
495 -> 501 ;
502 [label="x[20] <= 0.004\ngini = 0.101\nsamples = 100\nvalue = [[97.0, 3.0]\n[99.0, 1.0]\n[97.0, 3.0]\n[100.0, 0.0]\n[21.0, 79.0]\n[86.0, 14.0]\n[100.0, 0.0]]", fillcolor="#f0b78e"] ;
478 -> 502 ;
503 [label="x[2] <= -0.567\ngini = 0.051\nsamples = 73\nvalue = [[71, 2]\n[72, 1]\n[70, 3]\n[73, 0]\n[7, 66]\n[72, 1]\n[73, 0]]", fillcolor="#eb9d64"] ;
502 -> 503 ;
504 [label="x[12] <= 0.032\ngini = 0.039\nsamples = 70\nvalue = [[68, 2]\n[69, 1]\n[68, 2]\n[70, 0]\n[5, 65]\n[70, 0]\n[70, 0]]", fillcolor="#e9965a"] ;
503 -> 504 ;
505 [label="x[2] <= -0.589\ngini = 0.179\nsamples = 4\nvalue = [[4, 0]\n[3, 1]\n[3, 1]\n[4, 0]\n[2, 2]\n[4, 0]\n[4, 0]]", fillcolor="#f9e1d0"] ;
504 -> 505 ;
506 [label="gini = 0.0\nsamples = 2\nvalue = [[2, 0]\n[2, 0]\n[2, 0]\n[2, 0]\n[0, 2]\n[2, 0]\n[2, 0]]", fillcolor="#e58139"] ;
505 -> 506 ;
507 [label="gini = 0.143\nsamples = 2\nvalue = [[2, 0]\n[1, 1]\n[1, 1]\n[2, 0]\n[2, 0]\n[2, 0]\n[2, 0]]", fillcolor="#f5ceb2"] ;
505 -> 507 ;
508 [label="x[10] <= -0.015\ngini = 0.025\nsamples = 66\nvalue = [[64, 2]\n[66, 0]\n[65, 1]\n[66, 0]\n[3, 63]\n[66, 0]\n[66, 0]]", fillcolor="#e88e4e"] ;
504 -> 508 ;
509 [label="gini = 0.0\nsamples = 51\nvalue = [[51, 0]\n[51, 0]\n[51, 0]\n[51, 0]\n[0, 51]\n[51, 0]\n[51, 0]]", fillcolor="#e58139"] ;
508 -> 509 ;
510 [label="gini = 0.097\nsamples = 15\nvalue = [[13, 2]\n[15, 0]\n[14, 1]\n[15, 0]\n[3, 12]\n[15, 0]\n[15, 0]]", fillcolor="#f0b58a"] ;
508 -> 510 ;
511 [label="x[18] <= -0.003\ngini = 0.19\nsamples = 3\nvalue = [[3, 0]\n[3, 0]\n[2, 1]\n[3, 0]\n[2, 1]\n[2, 1]\n[3, 0]]", fillcolor="#fae7da"] ;
503 -> 511 ;
512 [label="gini = 0.0\nsamples = 1\nvalue = [[1, 0]\n[1, 0]\n[1, 0]\n[1, 0]\n[0, 1]\n[1, 0]\n[1, 0]]", fillcolor="#e58139"] ;
511 -> 512 ;
513 [label="x[0] <= -1.886\ngini = 0.143\nsamples = 2\nvalue = [[2, 0]\n[2, 0]\n[1, 1]\n[2, 0]\n[2, 0]\n[1, 1]\n[2, 0]]", fillcolor="#f5ceb2"] ;
511 -> 513 ;
514 [label="gini = 0.0\nsamples = 1\nvalue = [[1, 0]\n[1, 0]\n[0, 1]\n[1, 0]\n[1, 0]\n[1, 0]\n[1, 0]]", fillcolor="#e58139"] ;
513 -> 514 ;
515 [label="gini = 0.0\nsamples = 1\nvalue = [[1, 0]\n[1, 0]\n[1, 0]\n[1, 0]\n[1, 0]\n[0, 1]\n[1, 0]]", fillcolor="#e58139"] ;
513 -> 515 ;
516 [label="x[22] <= -0.001\ngini = 0.153\nsamples = 27\nvalue = [[26, 1]\n[27, 0]\n[27, 0]\n[27, 0]\n[14, 13]\n[14, 13]\n[27, 0]]", fillcolor="#f6d3ba"] ;
502 -> 516 ;
517 [label="gini = 0.0\nsamples = 1\nvalue = [[0, 1]\n[1, 0]\n[1, 0]\n[1, 0]\n[1, 0]\n[1, 0]\n[1, 0]]", fillcolor="#e58139"] ;
516 -> 517 ;
518 [label="x[12] <= 0.047\ngini = 0.143\nsamples = 26\nvalue = [[26, 0]\n[26, 0]\n[26, 0]\n[26, 0]\n[13, 13]\n[13, 13]\n[26, 0]]", fillcolor="#f5ceb2"] ;
516 -> 518 ;
519 [label="x[6] <= 0.127\ngini = 0.127\nsamples = 12\nvalue = [[12, 0]\n[12, 0]\n[12, 0]\n[12, 0]\n[8, 4]\n[4, 8]\n[12, 0]]", fillcolor="#f3c5a4"] ;
518 -> 519 ;
520 [label="gini = 0.0\nsamples = 4\nvalue = [[4, 0]\n[4, 0]\n[4, 0]\n[4, 0]\n[4, 0]\n[0, 4]\n[4, 0]]", fillcolor="#e58139"] ;
519 -> 520 ;
521 [label="gini = 0.143\nsamples = 8\nvalue = [[8, 0]\n[8, 0]\n[8, 0]\n[8, 0]\n[4, 4]\n[4, 4]\n[8, 0]]", fillcolor="#f5ceb2"] ;
519 -> 521 ;
522 [label="x[10] <= -0.011\ngini = 0.131\nsamples = 14\nvalue = [[14, 0]\n[14, 0]\n[14, 0]\n[14, 0]\n[5, 9]\n[9, 5]\n[14, 0]]", fillcolor="#f4c7a8"] ;
518 -> 522 ;
523 [label="gini = 0.0\nsamples = 6\nvalue = [[6, 0]\n[6, 0]\n[6, 0]\n[6, 0]\n[0, 6]\n[6, 0]\n[6, 0]]", fillcolor="#e58139"] ;
522 -> 523 ;
524 [label="gini = 0.134\nsamples = 8\nvalue = [[8, 0]\n[8, 0]\n[8, 0]\n[8, 0]\n[5, 3]\n[3, 5]\n[8, 0]]", fillcolor="#f4c9aa"] ;
522 -> 524 ;
525 [label="x[21] <= -0.01\ngini = 0.208\nsamples = 366\nvalue = [[320.0, 46.0]\n[288.0, 78.0]\n[306.0, 60.0]\n[210.0, 156.0]\n[358.0, 8.0]\n[351.0, 15.0]\n[363.0, 3.0]]", fillcolor="#fcf1e8"] ;
403 -> 525 ;
526 [label="x[3] <= -0.346\ngini = 0.066\nsamples = 173\nvalue = [[170.0, 3.0]\n[172.0, 1.0]\n[163.0, 10.0]\n[22.0, 151.0]\n[165.0, 8.0]\n[173.0, 0.0]\n[173.0, 0.0]]", fillcolor="#eca571"] ;
525 -> 526 ;
527 [label="x[6] <= 0.048\ngini = 0.007\nsamples = 153\nvalue = [[153, 0]\n[152, 1]\n[152, 1]\n[2, 151]\n[153, 0]\n[153, 0]\n[153, 0]]", fillcolor="#e6853f"] ;
526 -> 527 ;
528 [label="x[17] <= 0.002\ngini = 0.143\nsamples = 2\nvalue = [[2, 0]\n[1, 1]\n[1, 1]\n[2, 0]\n[2, 0]\n[2, 0]\n[2, 0]]", fillcolor="#f5ceb2"] ;
527 -> 528 ;
529 [label="gini = 0.0\nsamples = 1\nvalue = [[1, 0]\n[1, 0]\n[0, 1]\n[1, 0]\n[1, 0]\n[1, 0]\n[1, 0]]", fillcolor="#e58139"] ;
528 -> 529 ;
530 [label="gini = 0.0\nsamples = 1\nvalue = [[1, 0]\n[0, 1]\n[1, 0]\n[1, 0]\n[1, 0]\n[1, 0]\n[1, 0]]", fillcolor="#e58139"] ;
528 -> 530 ;
531 [label="gini = 0.0\nsamples = 151\nvalue = [[151, 0]\n[151, 0]\n[151, 0]\n[0, 151]\n[151, 0]\n[151, 0]\n[151, 0]]", fillcolor="#e58139"] ;
527 -> 531 ;
532 [label="x[17] <= 0.017\ngini = 0.176\nsamples = 20\nvalue = [[17, 3]\n[20, 0]\n[11, 9]\n[20, 0]\n[12, 8]\n[20, 0]\n[20, 0]]", fillcolor="#f8dfcd"] ;
526 -> 532 ;
533 [label="x[16] <= 0.001\ngini = 0.107\nsamples = 12\nvalue = [[9, 3]\n[12, 0]\n[3, 9]\n[12, 0]\n[12, 0]\n[12, 0]\n[12, 0]]", fillcolor="#f1bb93"] ;
532 -> 533 ;
534 [label="gini = 0.0\nsamples = 3\nvalue = [[0, 3]\n[3, 0]\n[3, 0]\n[3, 0]\n[3, 0]\n[3, 0]\n[3, 0]]", fillcolor="#e58139"] ;
533 -> 534 ;
535 [label="gini = 0.0\nsamples = 9\nvalue = [[9, 0]\n[9, 0]\n[0, 9]\n[9, 0]\n[9, 0]\n[9, 0]\n[9, 0]]", fillcolor="#e58139"] ;
533 -> 535 ;
536 [label="gini = 0.0\nsamples = 8\nvalue = [[8, 0]\n[8, 0]\n[8, 0]\n[8, 0]\n[0, 8]\n[8, 0]\n[8, 0]]", fillcolor="#e58139"] ;
532 -> 536 ;
537 [label="x[1] <= -0.315\ngini = 0.205\nsamples = 193\nvalue = [[150.0, 43.0]\n[116.0, 77.0]\n[143.0, 50.0]\n[188.0, 5.0]\n[193.0, 0.0]\n[178.0, 15.0]\n[190.0, 3.0]]", fillcolor="#fcefe6"] ;
525 -> 537 ;
538 [label="x[7] <= 0.469\ngini = 0.17\nsamples = 116\nvalue = [[94.0, 22.0]\n[48.0, 68.0]\n[106.0, 10.0]\n[115.0, 1.0]\n[116.0, 0.0]\n[101.0, 15.0]\n[116.0, 0.0]]", fillcolor="#f8dcc9"] ;
537 -> 538 ;
539 [label="x[7] <= 0.118\ngini = 0.14\nsamples = 101\nvalue = [[79, 22]\n[33, 68]\n[91, 10]\n[100, 1]\n[101, 0]\n[101, 0]\n[101, 0]]", fillcolor="#f4ccaf"] ;
538 -> 539 ;
540 [label="x[19] <= 0.076\ngini = 0.127\nsamples = 96\nvalue = [[74, 22]\n[28, 68]\n[91, 5]\n[95, 1]\n[96, 0]\n[96, 0]\n[96, 0]]", fillcolor="#f3c5a4"] ;
539 -> 540 ;
541 [label="x[11] <= 0.054\ngini = 0.112\nsamples = 86\nvalue = [[70, 16]\n[21, 65]\n[82, 4]\n[85, 1]\n[86, 0]\n[86, 0]\n[86, 0]]", fillcolor="#f1bd97"] ;
540 -> 541 ;
542 [label="x[21] <= 0.008\ngini = 0.097\nsamples = 79\nvalue = [[67, 12]\n[16, 63]\n[76, 3]\n[78, 1]\n[79, 0]\n[79, 0]\n[79, 0]]", fillcolor="#f0b58b"] ;
541 -> 542 ;
543 [label="gini = 0.078\nsamples = 71\nvalue = [[63, 8]\n[11, 60]\n[69, 2]\n[70, 1]\n[71, 0]\n[71, 0]\n[71, 0]]", fillcolor="#eeab7b"] ;
542 -> 543 ;
544 [label="gini = 0.17\nsamples = 8\nvalue = [[4, 4]\n[5, 3]\n[7, 1]\n[8, 0]\n[8, 0]\n[8, 0]\n[8, 0]]", fillcolor="#f8dcc8"] ;
542 -> 544 ;
545 [label="x[11] <= 0.069\ngini = 0.163\nsamples = 7\nvalue = [[3, 4]\n[5, 2]\n[6, 1]\n[7, 0]\n[7, 0]\n[7, 0]\n[7, 0]]", fillcolor="#f7d9c3"] ;
541 -> 545 ;
546 [label="gini = 0.0\nsamples = 4\nvalue = [[0, 4]\n[4, 0]\n[4, 0]\n[4, 0]\n[4, 0]\n[4, 0]\n[4, 0]]", fillcolor="#e58139"] ;
545 -> 546 ;
547 [label="gini = 0.127\nsamples = 3\nvalue = [[3, 0]\n[1, 2]\n[2, 1]\n[3, 0]\n[3, 0]\n[3, 0]\n[3, 0]]", fillcolor="#f3c5a4"] ;
545 -> 547 ;
548 [label="x[2] <= 0.879\ngini = 0.154\nsamples = 10\nvalue = [[4, 6]\n[7, 3]\n[9, 1]\n[10, 0]\n[10, 0]\n[10, 0]\n[10, 0]]", fillcolor="#f6d4bb"] ;
540 -> 548 ;
549 [label="x[16] <= -0.018\ngini = 0.107\nsamples = 4\nvalue = [[3, 1]\n[1, 3]\n[4, 0]\n[4, 0]\n[4, 0]\n[4, 0]\n[4, 0]]", fillcolor="#f1bb93"] ;
548 -> 549 ;
550 [label="gini = 0.0\nsamples = 1\nvalue = [[0, 1]\n[1, 0]\n[1, 0]\n[1, 0]\n[1, 0]\n[1, 0]\n[1, 0]]", fillcolor="#e58139"] ;
549 -> 550 ;
551 [label="gini = 0.0\nsamples = 3\nvalue = [[3, 0]\n[0, 3]\n[3, 0]\n[3, 0]\n[3, 0]\n[3, 0]\n[3, 0]]", fillcolor="#e58139"] ;
549 -> 551 ;
552 [label="x[3] <= 0.406\ngini = 0.079\nsamples = 6\nvalue = [[1, 5]\n[6, 0]\n[5, 1]\n[6, 0]\n[6, 0]\n[6, 0]\n[6, 0]]", fillcolor="#eeac7c"] ;
548 -> 552 ;
553 [label="gini = 0.0\nsamples = 5\nvalue = [[0, 5]\n[5, 0]\n[5, 0]\n[5, 0]\n[5, 0]\n[5, 0]\n[5, 0]]", fillcolor="#e58139"] ;
552 -> 553 ;
554 [label="gini = 0.0\nsamples = 1\nvalue = [[1, 0]\n[1, 0]\n[0, 1]\n[1, 0]\n[1, 0]\n[1, 0]\n[1, 0]]", fillcolor="#e58139"] ;
552 -> 554 ;
555 [label="gini = 0.0\nsamples = 5\nvalue = [[5, 0]\n[5, 0]\n[0, 5]\n[5, 0]\n[5, 0]\n[5, 0]\n[5, 0]]", fillcolor="#e58139"] ;
539 -> 555 ;
556 [label="gini = 0.0\nsamples = 15\nvalue = [[15, 0]\n[15, 0]\n[15, 0]\n[15, 0]\n[15, 0]\n[0, 15]\n[15, 0]]", fillcolor="#e58139"] ;
538 -> 556 ;
557 [label="x[12] <= 0.718\ngini = 0.182\nsamples = 77\nvalue = [[56.0, 21.0]\n[68.0, 9.0]\n[37.0, 40.0]\n[73.0, 4.0]\n[77.0, 0.0]\n[77.0, 0.0]\n[74.0, 3.0]]", fillcolor="#f9e3d3"] ;
537 -> 557 ;
558 [label="x[6] <= 0.193\ngini = 0.167\nsamples = 64\nvalue = [[55, 9]\n[55, 9]\n[25, 39]\n[60, 4]\n[64, 0]\n[64, 0]\n[61, 3]]", fillcolor="#f7dac6"] ;
557 -> 558 ;
559 [label="x[2] <= -0.54\ngini = 0.148\nsamples = 59\nvalue = [[50, 9]\n[51, 8]\n[20, 39]\n[59, 0]\n[59, 0]\n[59, 0]\n[56, 3]]", fillcolor="#f5d1b6"] ;
558 -> 559 ;
560 [label="x[16] <= -0.012\ngini = 0.107\nsamples = 4\nvalue = [[3, 1]\n[1, 3]\n[4, 0]\n[4, 0]\n[4, 0]\n[4, 0]\n[4, 0]]", fillcolor="#f1bb93"] ;
559 -> 560 ;
561 [label="gini = 0.0\nsamples = 1\nvalue = [[0, 1]\n[1, 0]\n[1, 0]\n[1, 0]\n[1, 0]\n[1, 0]\n[1, 0]]", fillcolor="#e58139"] ;
560 -> 561 ;
562 [label="gini = 0.0\nsamples = 3\nvalue = [[3, 0]\n[0, 3]\n[3, 0]\n[3, 0]\n[3, 0]\n[3, 0]\n[3, 0]]", fillcolor="#e58139"] ;
560 -> 562 ;
563 [label="x[21] <= 0.013\ngini = 0.133\nsamples = 55\nvalue = [[47, 8]\n[50, 5]\n[16, 39]\n[55, 0]\n[55, 0]\n[55, 0]\n[52, 3]]", fillcolor="#f4c8a9"] ;
559 -> 563 ;
564 [label="x[22] <= 0.003\ngini = 0.122\nsamples = 53\nvalue = [[45, 8]\n[48, 5]\n[14, 39]\n[53, 0]\n[53, 0]\n[53, 0]\n[52, 1]]", fillcolor="#f2c2a0"] ;
563 -> 564 ;
565 [label="gini = 0.106\nsamples = 50\nvalue = [[44, 6]\n[46, 4]\n[11, 39]\n[50, 0]\n[50, 0]\n[50, 0]\n[49, 1]]", fillcolor="#f1ba92"] ;
564 -> 565 ;
566 [label="gini = 0.127\nsamples = 3\nvalue = [[1, 2]\n[2, 1]\n[3, 0]\n[3, 0]\n[3, 0]\n[3, 0]\n[3, 0]]", fillcolor="#f3c5a4"] ;
564 -> 566 ;
567 [label="gini = 0.0\nsamples = 2\nvalue = [[2, 0]\n[2, 0]\n[2, 0]\n[2, 0]\n[2, 0]\n[2, 0]\n[0, 2]]", fillcolor="#e58139"] ;
563 -> 567 ;
568 [label="x[16] <= 0.002\ngini = 0.091\nsamples = 5\nvalue = [[5, 0]\n[4, 1]\n[5, 0]\n[1, 4]\n[5, 0]\n[5, 0]\n[5, 0]]", fillcolor="#efb286"] ;
558 -> 568 ;
569 [label="gini = 0.0\nsamples = 4\nvalue = [[4, 0]\n[4, 0]\n[4, 0]\n[0, 4]\n[4, 0]\n[4, 0]\n[4, 0]]", fillcolor="#e58139"] ;
568 -> 569 ;
570 [label="gini = 0.0\nsamples = 1\nvalue = [[1, 0]\n[0, 1]\n[1, 0]\n[1, 0]\n[1, 0]\n[1, 0]\n[1, 0]]", fillcolor="#e58139"] ;
568 -> 570 ;
571 [label="x[2] <= 2.032\ngini = 0.041\nsamples = 13\nvalue = [[1, 12]\n[13, 0]\n[12, 1]\n[13, 0]\n[13, 0]\n[13, 0]\n[13, 0]]", fillcolor="#e9975b"] ;
557 -> 571 ;
572 [label="gini = 0.0\nsamples = 11\nvalue = [[0, 11]\n[11, 0]\n[11, 0]\n[11, 0]\n[11, 0]\n[11, 0]\n[11, 0]]", fillcolor="#e58139"] ;
571 -> 572 ;
573 [label="x[11] <= 0.127\ngini = 0.143\nsamples = 2\nvalue = [[1, 1]\n[2, 0]\n[1, 1]\n[2, 0]\n[2, 0]\n[2, 0]\n[2, 0]]", fillcolor="#f5ceb2"] ;
571 -> 573 ;
574 [label="gini = 0.0\nsamples = 1\nvalue = [[0, 1]\n[1, 0]\n[1, 0]\n[1, 0]\n[1, 0]\n[1, 0]\n[1, 0]]", fillcolor="#e58139"] ;
573 -> 574 ;
575 [label="gini = 0.0\nsamples = 1\nvalue = [[1, 0]\n[1, 0]\n[0, 1]\n[1, 0]\n[1, 0]\n[1, 0]\n[1, 0]]", fillcolor="#e58139"] ;
573 -> 575 ;
576 [label="x[10] <= -0.015\ngini = 0.165\nsamples = 2087\nvalue = [[787, 1300]\n[1917, 170]\n[1781, 306]\n[1980, 107]\n[1978, 109]\n[2007, 80]\n[2072, 15]]", fillcolor="#f7dac4"] ;
230 -> 576 ;
577 [label="x[6] <= 0.215\ngini = 0.235\nsamples = 388\nvalue = [[295.0, 93.0]\n[308.0, 80.0]\n[312.0, 76.0]\n[346.0, 42.0]\n[332.0, 56.0]\n[355.0, 33.0]\n[380.0, 8.0]]", fillcolor="#ffffff"] ;
576 -> 577 ;
578 [label="x[4] <= 0.397\ngini = 0.11\nsamples = 61\nvalue = [[60, 1]\n[60, 1]\n[53, 8]\n[61, 0]\n[14, 47]\n[60, 1]\n[58, 3]]", fillcolor="#f1bc96"] ;
577 -> 578 ;
579 [label="x[0] <= -1.917\ngini = 0.175\nsamples = 6\nvalue = [[6, 0]\n[5, 1]\n[4, 2]\n[6, 0]\n[6, 0]\n[6, 0]\n[3, 3]]", fillcolor="#f8dfcc"] ;
578 -> 579 ;
580 [label="gini = 0.0\nsamples = 3\nvalue = [[3, 0]\n[3, 0]\n[3, 0]\n[3, 0]\n[3, 0]\n[3, 0]\n[0, 3]]", fillcolor="#e58139"] ;
579 -> 580 ;
581 [label="x[2] <= -0.532\ngini = 0.127\nsamples = 3\nvalue = [[3, 0]\n[2, 1]\n[1, 2]\n[3, 0]\n[3, 0]\n[3, 0]\n[3, 0]]", fillcolor="#f3c5a4"] ;
579 -> 581 ;
582 [label="gini = 0.0\nsamples = 1\nvalue = [[1, 0]\n[0, 1]\n[1, 0]\n[1, 0]\n[1, 0]\n[1, 0]\n[1, 0]]", fillcolor="#e58139"] ;
581 -> 582 ;
583 [label="gini = 0.0\nsamples = 2\nvalue = [[2, 0]\n[2, 0]\n[0, 2]\n[2, 0]\n[2, 0]\n[2, 0]\n[2, 0]]", fillcolor="#e58139"] ;
581 -> 583 ;
584 [label="x[9] <= -0.062\ngini = 0.073\nsamples = 55\nvalue = [[54, 1]\n[55, 0]\n[49, 6]\n[55, 0]\n[8, 47]\n[54, 1]\n[55, 0]]", fillcolor="#eda877"] ;
578 -> 584 ;
585 [label="x[12] <= 0.037\ngini = 0.127\nsamples = 3\nvalue = [[3, 0]\n[3, 0]\n[1, 2]\n[3, 0]\n[2, 1]\n[3, 0]\n[3, 0]]", fillcolor="#f3c5a4"] ;
584 -> 585 ;
586 [label="gini = 0.0\nsamples = 2\nvalue = [[2, 0]\n[2, 0]\n[0, 2]\n[2, 0]\n[2, 0]\n[2, 0]\n[2, 0]]", fillcolor="#e58139"] ;
585 -> 586 ;
587 [label="gini = 0.0\nsamples = 1\nvalue = [[1, 0]\n[1, 0]\n[1, 0]\n[1, 0]\n[0, 1]\n[1, 0]\n[1, 0]]", fillcolor="#e58139"] ;
585 -> 587 ;
588 [label="x[12] <= 0.038\ngini = 0.06\nsamples = 52\nvalue = [[51, 1]\n[52, 0]\n[48, 4]\n[52, 0]\n[6, 46]\n[51, 1]\n[52, 0]]", fillcolor="#eca16c"] ;
584 -> 588 ;
589 [label="x[12] <= 0.036\ngini = 0.051\nsamples = 51\nvalue = [[51, 0]\n[51, 0]\n[47, 4]\n[51, 0]\n[5, 46]\n[50, 1]\n[51, 0]]", fillcolor="#eb9d64"] ;
588 -> 589 ;
590 [label="x[9] <= -0.059\ngini = 0.143\nsamples = 2\nvalue = [[2, 0]\n[2, 0]\n[1, 1]\n[2, 0]\n[1, 1]\n[2, 0]\n[2, 0]]", fillcolor="#f5ceb2"] ;
589 -> 590 ;
591 [label="gini = 0.0\nsamples = 1\nvalue = [[1, 0]\n[1, 0]\n[0, 1]\n[1, 0]\n[1, 0]\n[1, 0]\n[1, 0]]", fillcolor="#e58139"] ;
590 -> 591 ;
592 [label="gini = 0.0\nsamples = 1\nvalue = [[1, 0]\n[1, 0]\n[1, 0]\n[1, 0]\n[0, 1]\n[1, 0]\n[1, 0]]", fillcolor="#e58139"] ;
590 -> 592 ;
593 [label="x[10] <= -0.016\ngini = 0.044\nsamples = 49\nvalue = [[49.0, 0.0]\n[49.0, 0.0]\n[46.0, 3.0]\n[49.0, 0.0]\n[4.0, 45.0]\n[48.0, 1.0]\n[49.0, 0.0]]", fillcolor="#ea985e"] ;
589 -> 593 ;
594 [label="x[1] <= -0.31\ngini = 0.036\nsamples = 45\nvalue = [[45, 0]\n[45, 0]\n[43, 2]\n[45, 0]\n[3, 42]\n[44, 1]\n[45, 0]]", fillcolor="#e99457"] ;
593 -> 594 ;
595 [label="x[22] <= -0.001\ngini = 0.107\nsamples = 4\nvalue = [[4, 0]\n[4, 0]\n[3, 1]\n[4, 0]\n[1, 3]\n[4, 0]\n[4, 0]]", fillcolor="#f1bb93"] ;
594 -> 595 ;
596 [label="gini = 0.0\nsamples = 3\nvalue = [[3, 0]\n[3, 0]\n[3, 0]\n[3, 0]\n[0, 3]\n[3, 0]\n[3, 0]]", fillcolor="#e58139"] ;
595 -> 596 ;
597 [label="gini = 0.0\nsamples = 1\nvalue = [[1, 0]\n[1, 0]\n[0, 1]\n[1, 0]\n[1, 0]\n[1, 0]\n[1, 0]]", fillcolor="#e58139"] ;
595 -> 597 ;
598 [label="x[17] <= 0.0\ngini = 0.027\nsamples = 41\nvalue = [[41, 0]\n[41, 0]\n[40, 1]\n[41, 0]\n[2, 39]\n[40, 1]\n[41, 0]]", fillcolor="#e88f50"] ;
594 -> 598 ;
599 [label="gini = 0.0\nsamples = 24\nvalue = [[24, 0]\n[24, 0]\n[24, 0]\n[24, 0]\n[0, 24]\n[24, 0]\n[24, 0]]", fillcolor="#e58139"] ;
598 -> 599 ;
600 [label="gini = 0.061\nsamples = 17\nvalue = [[17, 0]\n[17, 0]\n[16, 1]\n[17, 0]\n[2, 15]\n[16, 1]\n[17, 0]]", fillcolor="#eca26d"] ;
598 -> 600 ;
601 [label="x[7] <= 0.116\ngini = 0.107\nsamples = 4\nvalue = [[4, 0]\n[4, 0]\n[3, 1]\n[4, 0]\n[1, 3]\n[4, 0]\n[4, 0]]", fillcolor="#f1bb93"] ;
593 -> 601 ;
602 [label="gini = 0.0\nsamples = 1\nvalue = [[1, 0]\n[1, 0]\n[0, 1]\n[1, 0]\n[1, 0]\n[1, 0]\n[1, 0]]", fillcolor="#e58139"] ;
601 -> 602 ;
603 [label="gini = 0.0\nsamples = 3\nvalue = [[3, 0]\n[3, 0]\n[3, 0]\n[3, 0]\n[0, 3]\n[3, 0]\n[3, 0]]", fillcolor="#e58139"] ;
601 -> 603 ;
604 [label="gini = 0.0\nsamples = 1\nvalue = [[0, 1]\n[1, 0]\n[1, 0]\n[1, 0]\n[1, 0]\n[1, 0]\n[1, 0]]", fillcolor="#e58139"] ;
588 -> 604 ;
605 [label="x[12] <= 0.04\ngini = 0.226\nsamples = 327\nvalue = [[235.0, 92.0]\n[248.0, 79.0]\n[259.0, 68.0]\n[285.0, 42.0]\n[318.0, 9.0]\n[295.0, 32.0]\n[322.0, 5.0]]", fillcolor="#fefbf8"] ;
577 -> 605 ;
606 [label="x[12] <= 0.037\ngini = 0.214\nsamples = 211\nvalue = [[178.0, 33.0]\n[139.0, 72.0]\n[156.0, 55.0]\n[169.0, 42.0]\n[206.0, 5.0]\n[211.0, 0.0]\n[207.0, 4.0]]", fillcolor="#fdf4ee"] ;
605 -> 606 ;
607 [label="x[17] <= 0.002\ngini = 0.199\nsamples = 158\nvalue = [[127.0, 31.0]\n[95.0, 63.0]\n[107.0, 51.0]\n[153.0, 5.0]\n[154.0, 4.0]\n[158.0, 0.0]\n[154.0, 4.0]]", fillcolor="#fbece1"] ;
606 -> 607 ;
608 [label="x[11] <= -0.005\ngini = 0.17\nsamples = 69\nvalue = [[43, 26]\n[34, 35]\n[65, 4]\n[68, 1]\n[69, 0]\n[69, 0]\n[66, 3]]", fillcolor="#f8dcc8"] ;
607 -> 608 ;
609 [label="x[19] <= 0.001\ngini = 0.123\nsamples = 21\nvalue = [[6, 15]\n[16, 5]\n[20, 1]\n[21, 0]\n[21, 0]\n[21, 0]\n[21, 0]]", fillcolor="#f3c3a1"] ;
608 -> 609 ;
610 [label="x[11] <= -0.005\ngini = 0.142\nsamples = 11\nvalue = [[5, 6]\n[6, 5]\n[11, 0]\n[11, 0]\n[11, 0]\n[11, 0]\n[11, 0]]", fillcolor="#f5cdb1"] ;
609 -> 610 ;
611 [label="gini = 0.0\nsamples = 5\nvalue = [[0, 5]\n[5, 0]\n[5, 0]\n[5, 0]\n[5, 0]\n[5, 0]\n[5, 0]]", fillcolor="#e58139"] ;
610 -> 611 ;
612 [label="x[4] <= 0.401\ngini = 0.079\nsamples = 6\nvalue = [[5, 1]\n[1, 5]\n[6, 0]\n[6, 0]\n[6, 0]\n[6, 0]\n[6, 0]]", fillcolor="#eeac7c"] ;
610 -> 612 ;
613 [label="gini = 0.0\nsamples = 4\nvalue = [[4, 0]\n[0, 4]\n[4, 0]\n[4, 0]\n[4, 0]\n[4, 0]\n[4, 0]]", fillcolor="#e58139"] ;
612 -> 613 ;
614 [label="gini = 0.143\nsamples = 2\nvalue = [[1, 1]\n[1, 1]\n[2, 0]\n[2, 0]\n[2, 0]\n[2, 0]\n[2, 0]]", fillcolor="#f5ceb2"] ;
612 -> 614 ;
615 [label="x[3] <= -0.597\ngini = 0.051\nsamples = 10\nvalue = [[1, 9]\n[10, 0]\n[9, 1]\n[10, 0]\n[10, 0]\n[10, 0]\n[10, 0]]", fillcolor="#eb9d64"] ;
609 -> 615 ;
616 [label="gini = 0.0\nsamples = 1\nvalue = [[1, 0]\n[1, 0]\n[0, 1]\n[1, 0]\n[1, 0]\n[1, 0]\n[1, 0]]", fillcolor="#e58139"] ;
615 -> 616 ;
617 [label="gini = 0.0\nsamples = 9\nvalue = [[0, 9]\n[9, 0]\n[9, 0]\n[9, 0]\n[9, 0]\n[9, 0]\n[9, 0]]", fillcolor="#e58139"] ;
615 -> 617 ;
618 [label="x[12] <= 0.034\ngini = 0.157\nsamples = 48\nvalue = [[37, 11]\n[18, 30]\n[45, 3]\n[47, 1]\n[48, 0]\n[48, 0]\n[45, 3]]", fillcolor="#f6d5bd"] ;
608 -> 618 ;
619 [label="x[16] <= 0.262\ngini = 0.089\nsamples = 28\nvalue = [[27, 1]\n[5, 23]\n[25, 3]\n[27, 1]\n[28, 0]\n[28, 0]\n[28, 0]]", fillcolor="#efb184"] ;
618 -> 619 ;
620 [label="x[4] <= 0.459\ngini = 0.061\nsamples = 26\nvalue = [[25, 1]\n[3, 23]\n[25, 1]\n[25, 1]\n[26, 0]\n[26, 0]\n[26, 0]]", fillcolor="#eca26c"] ;
619 -> 620 ;
621 [label="gini = 0.043\nsamples = 25\nvalue = [[24, 1]\n[2, 23]\n[25, 0]\n[24, 1]\n[25, 0]\n[25, 0]\n[25, 0]]", fillcolor="#ea985d"] ;
620 -> 621 ;
622 [label="gini = 0.0\nsamples = 1\nvalue = [[1, 0]\n[1, 0]\n[0, 1]\n[1, 0]\n[1, 0]\n[1, 0]\n[1, 0]]", fillcolor="#e58139"] ;
620 -> 622 ;
623 [label="gini = 0.0\nsamples = 2\nvalue = [[2, 0]\n[2, 0]\n[0, 2]\n[2, 0]\n[2, 0]\n[2, 0]\n[2, 0]]", fillcolor="#e58139"] ;
619 -> 623 ;
624 [label="x[12] <= 0.037\ngini = 0.173\nsamples = 20\nvalue = [[10, 10]\n[13, 7]\n[20, 0]\n[20, 0]\n[20, 0]\n[20, 0]\n[17, 3]]", fillcolor="#f8decb"] ;
618 -> 624 ;
625 [label="x[7] <= 0.121\ngini = 0.141\nsamples = 16\nvalue = [[7, 9]\n[9, 7]\n[16, 0]\n[16, 0]\n[16, 0]\n[16, 0]\n[16, 0]]", fillcolor="#f5ccb0"] ;
624 -> 625 ;
626 [label="gini = 0.131\nsamples = 14\nvalue = [[5, 9]\n[9, 5]\n[14, 0]\n[14, 0]\n[14, 0]\n[14, 0]\n[14, 0]]", fillcolor="#f4c7a8"] ;
625 -> 626 ;
627 [label="gini = 0.0\nsamples = 2\nvalue = [[2, 0]\n[0, 2]\n[2, 0]\n[2, 0]\n[2, 0]\n[2, 0]\n[2, 0]]", fillcolor="#e58139"] ;
625 -> 627 ;
628 [label="x[8] <= -0.027\ngini = 0.107\nsamples = 4\nvalue = [[3, 1]\n[4, 0]\n[4, 0]\n[4, 0]\n[4, 0]\n[4, 0]\n[1, 3]]", fillcolor="#f1bb93"] ;
624 -> 628 ;
629 [label="gini = 0.0\nsamples = 3\nvalue = [[3, 0]\n[3, 0]\n[3, 0]\n[3, 0]\n[3, 0]\n[3, 0]\n[0, 3]]", fillcolor="#e58139"] ;
628 -> 629 ;
630 [label="gini = 0.0\nsamples = 1\nvalue = [[0, 1]\n[1, 0]\n[1, 0]\n[1, 0]\n[1, 0]\n[1, 0]\n[1, 0]]", fillcolor="#e58139"] ;
628 -> 630 ;
631 [label="x[17] <= 0.004\ngini = 0.176\nsamples = 89\nvalue = [[84.0, 5.0]\n[61.0, 28.0]\n[42.0, 47.0]\n[85.0, 4.0]\n[85.0, 4.0]\n[89.0, 0.0]\n[88.0, 1.0]]", fillcolor="#f8dfcd"] ;
607 -> 631 ;
632 [label="gini = 0.0\nsamples = 26\nvalue = [[26, 0]\n[26, 0]\n[0, 26]\n[26, 0]\n[26, 0]\n[26, 0]\n[26, 0]]", fillcolor="#e58139"] ;
631 -> 632 ;
633 [label="x[19] <= 0.0\ngini = 0.193\nsamples = 63\nvalue = [[58, 5]\n[35, 28]\n[42, 21]\n[59, 4]\n[59, 4]\n[63, 0]\n[62, 1]]", fillcolor="#fae9dc"] ;
631 -> 633 ;
634 [label="x[5] <= -0.844\ngini = 0.205\nsamples = 47\nvalue = [[42.0, 5.0]\n[34.0, 13.0]\n[27.0, 20.0]\n[43.0, 4.0]\n[43.0, 4.0]\n[47.0, 0.0]\n[46.0, 1.0]]", fillcolor="#fcefe6"] ;
633 -> 634 ;
635 [label="gini = 0.0\nsamples = 5\nvalue = [[0, 5]\n[5, 0]\n[5, 0]\n[5, 0]\n[5, 0]\n[5, 0]\n[5, 0]]", fillcolor="#e58139"] ;
634 -> 635 ;
636 [label="x[10] <= -0.016\ngini = 0.188\nsamples = 42\nvalue = [[42, 0]\n[29, 13]\n[22, 20]\n[38, 4]\n[38, 4]\n[42, 0]\n[41, 1]]", fillcolor="#fae6d8"] ;
634 -> 636 ;
637 [label="gini = 0.193\nsamples = 31\nvalue = [[31, 0]\n[18, 13]\n[20, 11]\n[27, 4]\n[29, 2]\n[31, 0]\n[30, 1]]", fillcolor="#fae9dc"] ;
636 -> 637 ;
638 [label="gini = 0.085\nsamples = 11\nvalue = [[11, 0]\n[11, 0]\n[2, 9]\n[11, 0]\n[9, 2]\n[11, 0]\n[11, 0]]", fillcolor="#eeaf81"] ;
636 -> 638 ;
